{
	"1d": [
		{
			"raw_pth_model_path": "train_data.good/C3DNN_train_hessweight_1.0e-04_activ_Softplus_layers_16_16_1ddst0_stretch0W_100.0/epoch1800_predloss_0.020_thirdval_63.9.pth",
			"id": 0,
			"net": {
				"input_dim": 1,
				"output_dim": 1,
				"input_mean": [0.111],
				"output_mean": [4.075541666666667],
				"input_std": [0.3685362940064384],
				"output_std": [5.6320834479729225],
				"layers": [16, 16],
				"weight_lst": [
					[
						[1.4257519966865233],
						[0.9590326144698814],
						[0.4663838173731377],
						[0.6848714575248129],
						[0.976896958645986],
						[1.03581171166417],
						[-1.6397476170507357],
						[-1.3126130192337708],
						[0.4362202318528505],
						[-0.09474984823182574],
						[0.21576449402816011],
						[-1.9952593175167672],
						[-0.8777397463915577],
						[0.5173533923672827],
						[0.8265452312219587],
						[0.37426833859695813]
					],
					[
						[
							-0.1330954620776023, -0.07152282868372944,
							0.27686850687946035, 0.3654421466059346,
							0.21994107898149023, 0.16685502599531313,
							-0.19673587893655378, -0.12097501210726032,
							0.10758468211943431, -0.19710861833836174,
							0.2636335895487756, -0.20574510374415056,
							-0.044753854337736425, 0.15055231253270573,
							0.5545776651258625, 0.018936838667578997
						],
						[
							0.607272925280454, 0.41286206650021334,
							-0.07791653217197163, -0.13521711501776815,
							-0.035227280997217475, 0.31494912518748297,
							0.7315458511016466, 0.09046687202355015,
							-0.02186941222623632, 0.1073259213445543,
							-0.3532173986592939, 0.23562774942358736,
							0.15686690585327234, -0.1775521166211792,
							-0.3939019608043099, 0.1233342314383137
						],
						[
							0.05728337333759021, -0.11328190703515738,
							0.15085607589010921, 0.2794281924439825,
							-0.06549381016026418, 0.2897157210297961,
							-0.3629478639141151, -0.11657178172866624,
							0.09802638811664609, 0.04264827418795326,
							-0.1858560058203785, -0.45147824076450793,
							-0.40931287544045303, -0.05370742357113259,
							0.29101919820398814, -0.01042577099244545
						],
						[
							-0.11652222671179197, 0.09868638583992856,
							0.2012505208544495, 0.04598658264391828,
							0.18070031438697898, 0.24367936042166258,
							-0.3913393384348337, -0.18859298503131003,
							0.2754780150818116, -0.1892260783053913,
							0.062398807002252116, -0.04508327924734626,
							0.07478962530303113, -0.009577736125731436,
							0.5016037381160858, 0.0697240966309478
						],
						[
							-0.11030634022495785, -0.032425845444946144,
							0.3260816118804996, 0.23017420132926333,
							0.037342842240133664, 0.4394180896043834,
							-0.388157838029854, -0.1293328030480701,
							0.18460510276025596, 0.18721967428058117,
							0.07702501248871009, 0.004984657673909584,
							0.03042863047622799, 0.05409681174783485,
							0.47417433150761257, 0.16317848195951265
						],
						[
							-0.002607812375008901, -0.0901284230874385,
							0.2925695029992884, -0.07762485834237659,
							0.16325568276523775, 0.15622226727562002,
							-0.336955666443096, -0.3087187153568085,
							0.10511235478436128, 0.03680817215128308,
							-0.16004146180418907, -0.09331144267981227,
							-0.4356477106390686, 0.36123356280260266,
							0.24047349066575707, 0.24375063820817688
						],
						[
							-0.21208214452775873, -0.046637786643371315,
							0.5154626319455426, 0.06764998832153592,
							0.24252528689058103, 0.44426818068242924,
							-0.38297776399511335, -0.12720323800447675,
							0.21048022354607795, 0.2792645645303567,
							0.2728878527373426, -0.007344557725839402,
							-0.12227188155384958, 0.3952387383826872,
							0.5752921844276796, 0.4701074753191843
						],
						[
							0.0029910625616208055, 0.1599250242026471,
							-0.31885034223059155, -0.2105420429188947,
							0.17196470171447836, 0.1128388101286148,
							0.3295628908436958, 0.3569768100917345,
							0.08385270851728267, 0.07769870590726474,
							-0.058301268672136926, 0.29852861285795934,
							0.05783935898987462, 0.02887164262288695,
							-0.01726720446911083, -0.05159919346206974
						],
						[
							0.25452899595757933, 0.3920938195254178,
							-0.12277196747177604, -0.1019562523688166,
							0.30531567608679067, 0.13110482157251074,
							0.7009870892164396, -0.04566399797423907,
							-0.31028701425024635, -0.12885218659080003,
							-0.41858155083614373, 0.0034236521983328208,
							0.06822333644789866, 0.2470650987925697,
							-0.22876433770977164, -0.13812649543188793
						],
						[
							0.048517923399395105, 0.27687255489772317,
							0.03501089680253357, 0.12368212783502752,
							0.025702709949459113, 0.34823114721169146,
							-0.7721822365151026, -0.34117123628600726,
							0.1087201904668185, -0.16986653433222687,
							0.1499843641428654, -0.5150268546761168,
							-0.22496619551332403, 0.38215251484222673,
							0.09762359457294009, 0.17036140858951893
						],
						[
							-0.11376931525283492, -0.17017536820869592,
							0.21022026242661562, 0.0707027115506634,
							0.2327577110851438, 0.33705303445599955,
							-0.3489523255837393, -0.17217635318279664,
							0.1541905169951869, -0.3051062982311856,
							0.07943017474062505, -0.1660734216820264,
							-0.2431436627774931, 0.21885772048952193,
							0.2186941048575282, -0.04490658900584932
						],
						[
							1.0670579553307917, 0.5749031017179833,
							-0.44106633396119505, -0.017847730590188314,
							0.751242172771413, 0.17952255578103996,
							-0.2227987809671155, -0.796058009680619,
							-0.058636559093257656, -0.7068796083836233,
							-0.22963308925751943, -0.1883370834453139,
							-0.8735480193199769, 0.11438308949613586,
							-0.26336419169838043, -0.366756382485048
						],
						[
							-0.12973581250644828, 0.055960449981338097,
							0.592534896279233, 0.161470128581143,
							0.09856828501956698, 0.37900521357016675,
							-0.5717099485926739, 0.16053266653685305,
							0.19126443989540678, 0.10639910347665574,
							0.3952517067142891, 0.02188329475694648,
							-0.11979765375505315, 0.1865008921685161,
							0.4980373614819087, 0.433386597218062
						],
						[
							0.5892424237922097, 0.9858311320045343,
							0.7777119355450254, 1.209765965934356,
							0.6782809485421236, 0.9303583040106701,
							-1.5191256265860515, -0.6128808443566366,
							1.1604367640318236, 0.15120696328622285,
							0.4105239187481096, -1.1581249799858788,
							-0.3214899270217319, 0.9531635250490094,
							1.1226209903064803, 0.892751993160328
						],
						[
							-0.25747075443134315, -0.42994838533711816,
							-0.24433370942034227, -0.19651529576242266,
							-0.28612748334933696, -0.0725580905313304,
							0.30146275272927686, 0.1766353581556571,
							0.17745103134251808, 0.28598648076720434,
							0.21807648562793142, 0.2899270126618187,
							0.30433629625943676, -0.04513548907531987,
							0.2027659661665968, -0.20070490548172365
						],
						[
							0.7616245913733, 0.5196276509259649,
							-0.09656324174860839, 0.11576524462713553,
							0.7473356218334654, 0.5222384879893762,
							-1.217832669649527, -0.8588557013638611,
							-0.031813616537214526, -0.4861747527907606,
							-0.3169308871162575, -1.4748789598481051,
							-0.9381420982298313, 0.3415309763283731,
							0.2215466713506709, -0.03968685760346364
						]
					],
					[
						[
							-0.4102718501126243, 0.36404805228737447,
							-0.20807482020005844, -0.1691344008741477,
							-0.32606216811895783, -0.15900742653955138,
							-0.47030697330304105, 0.3021484616519219,
							0.3577230188454512, -0.06364651691904255,
							-0.1471528553170505, 0.33937812460025235,
							-0.3409681717192408, 0.45064657543298736,
							0.1397617539354253, 0.6222289905142863
						]
					]
				],
				"bias_lst": [
					[
						-0.5289230742207456, -0.689210134943517,
						0.865731912885767, 1.7532526044677703,
						-0.5014404315131746, 1.5047117733330468,
						-0.5080261930389544, -0.2595230219316548,
						0.8919073356611124, 0.27171725874778635,
						0.3378732145897441, -0.5131726892734592,
						0.3685382303460434, 0.2028326776115475,
						1.7030414093438981, 0.7371665787074234
					],
					[
						0.21193093948094036, 0.041884044233525666,
						0.2222356454672774, 0.03623204334176497,
						0.15655401282294334, 0.2097388453305464,
						0.11904410283843085, -0.08235381042895813,
						-0.17236603561375485, 0.18215139757790952,
						0.015881595879419175, -0.2894130652911987,
						0.2560414626740855, 0.39000033755882585,
						-0.10084089297434704, -0.4799399034952564
					],
					[0.11062614034592007]
				],
				"activation": "softplus",
				"x_range": [[-0.5], [0.8]],
				"y_range": [-0.009000000000000036, 21.27]
			}
		},
		{
			"raw_pth_model_path": "train_data.good/C3DNN_train_hessweight_1.0e-04_activ_Softplus_layers_16_16_1ddst1_stretch0W_100.0/epoch1999_predloss_0.003_thirdval_87.2.pth",
			"id": 1,
			"net": {
				"input_dim": 1,
				"output_dim": 1,
				"input_mean": [-1.964996503761339e-18],
				"output_mean": [0.41551415929203533],
				"input_std": [0.3902642626352886],
				"output_std": [0.7801660989324057],
				"layers": [16, 16],
				"weight_lst": [
					[
						[1.7065076012066729],
						[1.4685974466199265],
						[0.08050567320914905],
						[0.27220853490937497],
						[1.3327135363379492],
						[2.5831939447143912],
						[-1.6359527407146957],
						[-1.2627178676444768],
						[-1.244458912699674],
						[-1.288292262164646],
						[-0.009963554098124737],
						[-1.1615880510605996],
						[-0.01725651672293296],
						[0.04299422324376635],
						[-0.1798755885938361],
						[-2.6368807626850237]
					],
					[
						[
							-0.4584967334690284, -0.399919325536464,
							0.23455509138815173, 0.2891899883525448,
							-0.07693193411262574, 0.014590487115237211,
							-0.13288400393200947, -0.07047108228703777,
							-0.09094209314671398, -0.24505677200811166,
							0.3853280095986163, -0.03297775706754264,
							0.2559456699279219, 0.19283184518220398,
							0.4423381390882536, -0.12718612362165083
						],
						[
							0.8673161331993304, 0.697619675182107,
							-0.41688151761837333, -0.5060407330926358,
							0.16955620187109482, 0.5566935835975806,
							0.8378924046383565, 0.18839688109914154,
							0.3208611007342063, 0.4015108152034475,
							-0.8054230032164679, 0.19521993908457985,
							-0.49874277750046525, -0.7478350112058032,
							-0.6643558625014171, 0.43975758581001106
						],
						[
							-0.32694766639596634, -0.5026442021101484,
							0.055111694958108484, 0.15956924524488794,
							-0.42965131116678656, 0.022619202699721112,
							-0.17452133771876352, 0.058213644878334206,
							-0.12412290656074519, 0.014824362695659602,
							-0.1213457667649514, -0.16680678099982943,
							-0.05076395620461231, -0.08992163690450777,
							0.1200722218834063, -0.19382438430965213
						],
						[
							-0.5075806305656921, -0.2769970744009186,
							0.2030967670503376, -0.008571144513551258,
							-0.1431436573611989, 0.07000932749407206,
							-0.3562974801402409, -0.15276334875691788,
							0.017796331003039612, -0.2622835589016217,
							0.2369065744429351, 0.15359438758735747,
							0.4388587091720895, 0.03963674812802037,
							0.35485818716435974, -0.08196055421757698
						],
						[
							-0.4880215615898825, -0.4244345047653624,
							0.20806921034187242, 0.11774895667234082,
							-0.3452665765306232, 0.19838970322482166,
							-0.33081912809768715, -0.1454629021079532,
							-0.17206951289293787, 0.051155337967980934,
							0.11541699227493041, 0.11127691447608262,
							0.26529387895329387, -0.0031727239403646816,
							0.2010054691733845, -0.11926897688957624
						],
						[
							-0.36210026410464896, -0.46295913163559704,
							0.2316747350910777, -0.1637357006821415,
							-0.182400922164763, -0.08433181294504793,
							-0.2976705356375941, -0.26255047672360193,
							-0.20380513835537936, -0.06798325927195362,
							-0.07145643898109337, 0.09531340432332924,
							-0.11333103541420197, 0.3551728628903604,
							0.03425653355069178, -0.01699790693747741
						],
						[
							-0.596492919476467, -0.4470429715430831,
							0.3735369417521256, -0.049864666138128254,
							-0.12765474510070063, 0.22373370372626425,
							-0.5068230526629413, -0.2798431622095797,
							-0.15670668924522718, 0.028606976180676803,
							0.2873835648632937, 9.562889278179821e-5,
							0.05739868392418254, 0.3995543960134117,
							0.3464757878393318, 0.11745869318434879
						],
						[
							-0.5346444376919626, -0.5979776510424306,
							-0.8084918524141574, -1.0539428471390653,
							-0.6420667083135231, 0.2191129380746859,
							0.5605192612105794, 0.5158627483265825,
							0.48142672778204576, 0.40742117134485845,
							-0.4862721288011674, 0.307479661953455,
							-0.5019810069003711, -0.7088651090414794,
							-0.16163650030470803, 0.3528736958278842
						],
						[
							0.43179526708763744, 0.5973666380141903,
							-0.024288600873236255, -0.10226676348401052,
							0.45595677272849516, 0.22453559609731152,
							0.932972392009435, 0.22063862711313845,
							0.10616934751092097, 0.3693747548453214,
							-0.3747440288536193, 0.17093590670786288,
							-0.0982678993712698, 0.08143755565038183,
							-0.1257427834586026, 0.2196880000161915
						],
						[
							-0.5567074063843523, -0.22546170055613746,
							0.3509570677198362, -0.0735597700948769,
							-0.271133674896383, 0.10973256541374708,
							-0.5578674865081834, -0.20544083845039662,
							-0.13864692645446516, -0.11814876339944008,
							0.5593128512229539, -0.13107280527714585,
							0.20860434464650585, 0.40557937562035545,
							0.33830894501818376, 0.22410632777130263
						],
						[
							-0.5036677073829673, -0.5410448138620209,
							0.19632183879451204, -0.0081138339645707,
							-0.0920208086475874, 0.12654637838363578,
							-0.1896467606216253, -0.009987227957982342,
							-0.03171754291247058, -0.30628674215524515,
							0.23012283567023686, 0.1158560072601128,
							0.1565629012331295, 0.24206955226074897,
							0.10818879469366308, -0.1580000759995884
						],
						[
							0.8744224072400616, 0.4657972591103732,
							-0.5425154409161473, -0.37139308530508186,
							0.5672712559754709, 0.14472239372351606,
							0.698064094292567, 0.1875905932056315,
							0.3031275674668207, 0.300313734917336,
							-0.22600948391021325, 0.4966181141333281,
							-0.5606437590489982, -0.5244263888040372,
							-0.4963923526625557, 0.14493281448449566
						],
						[
							-0.5087193067159713, -0.3449752724390049,
							0.4408739477086876, 0.02079583685413372,
							-0.281980161826198, 0.14538827544813218,
							-0.6329281734406771, 0.052679505601762135,
							-0.19549953035655676, -0.11202072577377126,
							0.40360685931390766, 0.05772305288150326,
							0.06729959192361779, 0.14859712444378753,
							0.2299638518796428, 0.08935990121896133
						],
						[
							-0.4882249977795431, -0.08870128431984294,
							0.3451682593060216, 0.16946400669066716,
							-0.2271699663402071, -0.05950972850250764,
							-0.26817136387257745, -0.26192649444508886,
							-0.046758947356950006, -0.1805045860923118,
							0.17594965865448176, -0.32300670498167755,
							0.17959869702446607, 0.1627561596781952,
							0.37584824057614696, 0.17657646102140723
						],
						[
							-0.6010887847017847, -0.8584002401229577,
							0.39453202662798686, 0.46498138305465153,
							-0.5953276730531288, -1.0821780923497468,
							-0.8672800994531015, -0.12748223246845147,
							-0.11548350562616004, -0.011425948937911342,
							0.8809410354171955, 0.15552572952630914,
							0.8630960924407428, 0.6779127585411288,
							0.8296999146410676, -1.5061645059416107
						],
						[
							0.5820256810809719, 0.36056930244422675,
							-0.3455876023755187, -0.3499122234939647,
							0.5177305966210067, 0.36316196210840396,
							0.5334293535801621, 0.3327051789526757,
							0.14588542252411774, 0.4022762838759781,
							-0.4201097314379658, 0.0307661498225442,
							-0.5452288302076362, -0.37488054665298387,
							-0.1871034272124847, 0.3255978493464657
						]
					],
					[
						[
							-0.4986597371253943, 0.9141842434576741,
							-0.25837736209524037, -0.2927943155315795,
							-0.3993026814460777, -0.2312174243348278,
							-0.49159243183668594, 0.8718842235995649,
							0.5921183034556526, -0.27214790430816516,
							-0.27160807710290613, 0.6461562119819171,
							-0.35272867797969726, -0.20818764894967454,
							0.8116780604713476, 0.7621927017308955
						]
					]
				],
				"bias_lst": [
					[
						-0.6233847891068307, -0.9247528613060262,
						0.902832808969488, 1.3047196840682487,
						-0.9427056149110971, -1.6406757702520522,
						-1.089658070339415, -0.3622902145453094,
						-1.1267551842838737, -0.35738370413868076,
						0.6177556545154836, -0.13727294990831077,
						0.8949742641730276, 0.06295051923628224,
						1.277208586448452, -1.8317392376867325
					],
					[
						0.3518008717100776, -0.5054752935023185,
						0.31507604861728156, 0.23107138964748866,
						0.2340553121634589, 0.32540045518103233,
						0.14499830788299684, -0.6278581104696003,
						-0.24411839791753986, 0.4637756691986385,
						0.19703730632245234, -0.2895738053726956,
						0.28763308262316484, 0.1744211743356806,
						0.5240362361383082, -0.5953739679417803
					],
					[-0.02164865994011796]
				],
				"activation": "softplus",
				"x_range": [[-0.75], [0.75]],
				"y_range": [-2.7755575615628914e-17, 3.524]
			}
		},
		{
			"raw_pth_model_path": "train_data.good/C3DNN_train_hessweight_1.0e-04_activ_Softplus_layers_16_16_1ddst2_stretch0W_100.0/epoch1999_predloss_0.008_thirdval_26.8.pth",
			"id": 2,
			"net": {
				"input_dim": 1,
				"output_dim": 1,
				"input_mean": [0.111],
				"output_mean": [4.077858333333333],
				"input_std": [0.3685362940064384],
				"output_std": [5.1475543048711225],
				"layers": [16, 16],
				"weight_lst": [
					[
						[1.6259565648326992],
						[1.3419184001835325],
						[0.3502249237180174],
						[0.3561603211428475],
						[1.1452370905563234],
						[1.2747825145760698],
						[-1.8560446495561884],
						[-1.5398137333599358],
						[-1.6058582443022753],
						[0.0407995254224621],
						[0.14258290952944136],
						[-1.1730933583655132],
						[-0.27963709747532933],
						[0.5277738796314266],
						[0.5743994797386066],
						[0.18150975046034232]
					],
					[
						[
							-0.2059371988479053, -0.16343212650330632,
							0.2563872929074051, 0.3299587402126992,
							0.1324272181570242, 0.1411413898057219,
							-0.1488557385208454, -0.09124957136478533,
							-0.07097322388772868, -0.10215222388035648,
							0.27102954911674604, -0.1971076025370719,
							0.017882275120038708, 0.11065587296363293,
							0.5037526884858842, -0.010953101078664713
						],
						[
							0.7818197492278915, 0.5645875857581023,
							-0.23875195252260425, -0.2791456560490435,
							0.061603182332020896, 0.3731808609232496,
							0.8032008424768801, 0.03771026120753192,
							0.4139654033179672, -0.15740197566462924,
							-0.5378276033695555, 0.16480395521019772,
							-0.016188387510608766, -0.18756558405958204,
							-0.5202787592885938, -0.0420673972337104
						],
						[
							0.003997604393040664, -0.19325010033517936,
							0.1316016971047782, 0.23518134478497613,
							-0.13986181679581536, 0.264749637073635,
							-0.19657396299462776, 0.04245847329956209,
							-0.072710855509391, 0.1601088024661656,
							-0.17771198328673568, -0.3160966244577394,
							-0.23701380111780018, -0.09230898947730186,
							0.23917194868613686, -0.041971738012736556
						],
						[
							-0.19414089747384286, 0.002230582271621678,
							0.16351680122704887, -0.006183688780933607,
							0.08807282990484491, 0.2058346167896355,
							-0.34777420279700605, -0.15892675286463032,
							0.030565584108272467, -0.1139098638452502,
							0.04556123255802292, -0.04564723004020446,
							0.12665160857148486, -0.06216709246498428,
							0.43256710955459826, 0.01619884430373724
						],
						[
							-0.1927517837289475, -0.1323804100393795,
							0.3094733021180674, 0.1842215953892045,
							-0.0563609525582284, 0.4047816490301063,
							-0.31496661974891654, -0.07702575708282443,
							-0.09972933359071573, 0.29504850404411986,
							0.09125361157956483, 0.036072945937833695,
							0.10882142745345091, 0.006079272483192408,
							0.41696032687999707, 0.13556709846574225
						],
						[
							-0.06525137082581511, -0.17769944914212227,
							0.26112706945288305, -0.1345105733696304,
							0.08216624142693253, 0.11619798579280992,
							-0.22419762728134984, -0.21102803171565093,
							-0.10272999248711961, 0.12306710639408303,
							-0.170041364020809, -0.02452882827807305,
							-0.31867573907785424, 0.30836308230828946,
							0.1760425535448494, 0.19956865202344445
						],
						[
							-0.3181942642176153, -0.16965015885199997,
							0.47771569255967766, 0.011975673649489057,
							0.1246692391587219, 0.38462313445988694,
							-0.35553597553289384, -0.11609067307797907,
							0.03213780012576573, 0.35891933371846735,
							0.26711608668052345, -0.011367329976379889,
							-0.07847634236865003, 0.3248420572006821,
							0.5027426029167933, 0.4267276694767291
						],
						[
							0.21311508235461524, 0.33883811042318596,
							-0.3677199970729887, -0.2598011394107451,
							0.3143753670115942, 0.196530737930735,
							0.4130732543129179, 0.34639145205187993,
							0.4881516422845652, -0.06510826413404508,
							-0.1252520011466214, 0.2907186394382862,
							-0.0199238810769991, 0.07259145647127838,
							-0.04621439942875864, -0.10230548129962853
						],
						[
							0.4104937792876912, 0.5595976614071401,
							-0.16018310911306147, -0.1312472820918345,
							0.42425801572352795, 0.22548884343165793,
							0.8720151388887584, 0.013245093936309682,
							0.23085731575386398, -0.26796926767692303,
							-0.47887858150090595, 0.028857130551382608,
							-0.0045059168164755135, 0.3025666044868109,
							-0.25140914479064297, -0.17562135107757412
						],
						[
							0.4080100850856872, 0.7287097563516894,
							0.7434090010310133, 0.8611050524926571,
							0.5367716707909095, 0.8442487220375405,
							-1.909816633791035, -0.5963956243752325,
							-0.8484152981055095, 0.4100470606454295,
							0.799686127663437, -0.49270844242025036,
							0.10734867135958163, 0.9831158897734565,
							0.8285386898047755, 0.7992254281573433
						],
						[
							-0.1736315661438603, -0.2564320796894921,
							0.1714990975121509, 0.01233305721441568,
							0.1536923449573156, 0.30846810487341264,
							-0.2555894509811144, -0.09591140158580509,
							-0.09448372573582203, -0.22551425938662226,
							0.061753987501849156, -0.11470330147633816,
							-0.13489838484651864, 0.17266823045645185,
							0.15290248666020625, -0.1001126767056961
						],
						[
							0.9494516847177994, 0.5124408317607154,
							-0.4427031520433437, -0.1433484697500053,
							0.6399726287629954, 0.17627676136203846,
							0.595509544021159, -0.03577212178326732,
							0.4545254077788065, -0.3707118411112304,
							-0.09562134482268116, 0.3741234497059785,
							-0.23223320917983564, 0.04770685337150314,
							-0.36877752542887615, -0.2842600629647932
						],
						[
							-0.23240374292767052, -0.06324029928682735,
							0.5648534741598594, 0.10767487592389263,
							-0.015045082460110782, 0.31988518990173537,
							-0.5220415751269142, 0.19057490744258482,
							-0.034694637787496194, 0.2013758822234483,
							0.4004424589056332, 0.038520062945555815,
							-0.0570295676521823, 0.11886256395905581,
							0.4302088901975055, 0.4005314049266663
						],
						[
							-0.2672636190855102, 0.14417700938458688,
							0.4732053496791155, 0.2956602024914707,
							-0.031553759065150955, 0.03197367598927583,
							-0.307670509599694, -0.06282188917467732,
							0.2891590009310128, 0.21849639198153367,
							0.19072904691632078, -0.4488544629940273,
							-0.020495204581660296, 0.07408045639880084,
							0.6020628610255268, 0.5687762970119434
						],
						[
							-1.9843045467733122, -1.938965109863114,
							0.003406274805352174, 0.11831382840844579,
							-1.3659944688697419, -0.6523730373420198,
							-0.6387256070830614, -0.1523000534438512,
							-0.2260595393880083, 0.48273365574620236,
							0.4640951176092047, 0.09593337601676757,
							0.3782832834859641, -0.12300637071077836,
							0.43283135574671544, 0.02656711421762056
						],
						[
							0.22790586356878062, 0.15633215974392378,
							0.1650238485904288, 0.24280916311881878,
							0.4426967857623392, 0.303410189523376,
							-0.7320936899948718, 0.0906719108680203,
							-0.09368903551046218, 0.13931126529532042,
							0.0631298426300967, -0.10727913806174205,
							-0.05780887617326581, 0.20784548839877587,
							0.36343726320827024, 0.32148663271192274
						]
					],
					[
						[
							-0.3888072733997467, 0.4775653276472664,
							-0.17159992715556666, -0.14274950358778737,
							-0.3263245968673572, -0.133447215640275,
							-0.445799101974463, 0.38500703517384355,
							0.48541173060893494, 0.40211200989996443,
							-0.11840594089684342, 0.4214439273276644,
							-0.3160535184749977, -0.28405999531936355,
							0.6846409300388758, 0.30229285506764647
						]
					]
				],
				"bias_lst": [
					[
						-0.5154584681651969, -0.7518104299714058,
						0.8656765280221654, 1.1122238959606146,
						-0.6466016800773394, 0.8360145717891228,
						-0.8163589819053753, -1.0279206022536964,
						-0.9260416241308891, 0.43162307282167695,
						0.5410530785591412, -0.028538998942018456,
						-0.2554217148982872, -0.23360933450687407,
						1.6289661356744252, 0.6500225851250275
					],
					[
						0.2344205481587605, -0.15868771922058655,
						0.2509292775099992, 0.04370921653255929,
						0.19169823703632022, 0.22641742738288903,
						0.1270609624422606, -0.17241621977716773,
						-0.25254933809546354, 0.7344967162609874,
						0.019640905738085346, -0.057405860701567744,
						0.2791310333023522, 0.21259509813064284,
						0.12633835590017026, 6.555742273349862e-5
					],
					[0.07001931925385993]
				],
				"activation": "softplus",
				"x_range": [[-0.5], [0.8]],
				"y_range": [-0.014000000000000012, 19.997]
			}
		},
		{
			"raw_pth_model_path": "train_data.good/C3DNN_train_hessweight_1.0e-04_activ_Softplus_layers_16_16_1ddst3_stretch0W_0.0/epoch1999_predloss_0.000_thirdval_0.7.pth",
			"id": 3,
			"net": {
				"input_dim": 1,
				"output_dim": 1,
				"input_mean": [6.063298011819522e-15],
				"output_mean": [0.20565999999999998],
				"input_std": [90.64092188410265],
				"output_std": [0.5242012823334182],
				"layers": [16, 16],
				"weight_lst": [
					[
						[1.4928276709107475],
						[0.9478394352018716],
						[0.41445099243152667],
						[1.0106457451273745],
						[0.8123782857219124],
						[1.0789037904138328],
						[-0.5317550113137813],
						[-0.23559990211672047],
						[0.888049074379709],
						[-0.26290373380896637],
						[-0.04262263416581972],
						[-0.44180184903195957],
						[-0.322506569882227],
						[0.8264859799407789],
						[0.7030109966283041],
						[0.18823670109514345]
					],
					[
						[
							-0.29259529612870494, -0.24477253563013335,
							0.10404481181930406, 0.17398614085889166,
							0.003896623246822987, -0.029474443134550478,
							-0.015265946008189505, -0.09844669391523883,
							-0.14836828499409774, -0.255586465426934,
							0.14271926953430045, -0.154979691332034,
							-0.02687841384453409, -0.039436123578410934,
							0.29686609819065574, -0.15279404274390426
						],
						[
							0.5359224541004075, 0.41024958742862927,
							0.07354429791685944, 0.038268450751251015,
							0.024532093687781233, 0.4171571026435584,
							0.07563858321480857, -0.1864237385793217,
							0.21273086206057892, -0.04670719649937052,
							-0.34581545115538165, -0.12016652950437422,
							-0.08935751404124762, -0.055528855134970946,
							-0.1734399532155351, 0.21599192365628608
						],
						[
							-0.08935010418625974, -0.26583822896134446,
							-0.00014609025211996166, 0.1187124238497802,
							-0.25628950957728747, 0.10140184710191587,
							-0.06571519901893678, 0.06381831024675917,
							-0.11068606006606709, 0.02988403234519559,
							-0.2779083668673027, -0.24933238168321037,
							-0.2549801651615183, -0.22383085104681708,
							0.05282775030676109, -0.15529932871484953
						],
						[
							-0.2721085190401501, -0.05671898417994066,
							0.1276876486690792, -0.12217856061970007,
							-0.005393250277604787, 0.06524879625068113,
							-0.11573599185076938, -0.06046840871810546,
							0.070292462317501, -0.16007266485522464,
							0.022758096028959406, 0.10470533939037384,
							0.19036227077016962, -0.171243037400877,
							0.312868670513775, -0.006479545297726083
						],
						[
							-0.2958924802154519, -0.21495519707598593,
							0.21271565455567268, 0.03647825277925193,
							-0.1798661715573391, 0.23209168132482952,
							-0.08691466664807959, -0.0033941108599735807,
							-0.03823801194892745, 0.20626157607320214,
							0.019294610541916536, 0.1520531637502281,
							0.1371066459585366, -0.13828072958048834,
							0.24135473664499468, 0.06014438643635253
						],
						[
							-0.13129034611732296, -0.22073734076447746,
							0.21580319944571688, -0.23235565197459107,
							0.001594936908169622, -0.01354849181387141,
							-0.034097251630816984, -0.13939820229236333,
							-0.08350961555984147, 0.0679887414167086,
							-0.20629729826029955, 0.10342719670129388,
							-0.2772524202182599, 0.21109019470205312,
							0.056905982213676445, 0.16332354915875733
						],
						[
							-0.37919516393533625, -0.2466259678780909,
							0.2900350246920968, -0.17302629025389316,
							-0.004698708525932156, 0.22627415915502877,
							-0.2554716165702735, -0.17626433729454313,
							-0.12042365269225432, 0.14387054897133206,
							0.08445456012786359, -0.027312065387790442,
							-0.18197289774693962, 0.16716626863971448,
							0.27554903651159507, 0.23998049475244881
						],
						[
							0.061675554111120294, 0.23909384787985696,
							-0.1730203417096795, -0.046339567448983064,
							0.3021829704950371, 0.23587418552610936,
							-0.271927414782874, 0.10078804165818896,
							0.30967727109341014, -0.06771634730361589,
							-0.04859810654596091, -0.0286994887818706,
							-0.17162512273308397, 0.16945118895260322,
							0.2012279832801426, 0.039979241060579436
						],
						[
							0.20451901398996397, 0.40502140892961347,
							0.08620864681821314, 0.09205265396689156,
							0.37318136486822207, 0.2756566209687754,
							0.06604357343129649, -0.3054541226505721,
							-0.05000804202783268, -0.23597147974182686,
							-0.3333898824953214, -0.36346125614864705,
							-0.14207361664880128, 0.3969762221476821,
							0.008090526533062702, 0.015477616545270672
						],
						[
							0.33896941896957233, 0.44527892318146123,
							-0.037853453618807854, 0.10660089106502973,
							0.17453682385397623, 0.4173418992620394,
							-0.9029895429712116, -0.6492875991915869,
							0.17139858943364783, -0.6723171914892638,
							-0.1035816087780495, -0.943343900586887,
							-0.6584523035772508, 0.4478072975617315,
							0.03742983896308595, 0.015254384441990513
						],
						[
							-0.24489341550482124, -0.3002411099707597,
							0.12314085230102534, -0.07255200172043391,
							0.07110860165184844, 0.1697154505732065,
							-0.03075833574977374, 0.011214747653433206,
							-0.02219542995598017, -0.26789545611352794,
							0.03780032732891358, 0.044434523919968105,
							-0.07329371906140118, 0.07108384154417588,
							0.028537816005488437, -0.1270591585491324
						],
						[
							0.6216048290383119, 0.2612161983204602,
							-0.2108200926230157, 0.09252409476506876,
							0.5062908311986511, 0.14865461598040203,
							-0.4800359192765565, -0.4866145812922708,
							0.21648013905610916, -0.4879084349995943,
							-0.035140719424726394, -0.2202610810103651,
							-0.5193907710765273, 0.09699451569510481,
							-0.12049941254626312, -0.11315168656670985
						],
						[
							-0.3060497064249944, -0.1453744607592631,
							0.3924069123688594, -0.07823542135885157,
							-0.14845558989002244, 0.1534547252231158,
							-0.386807594098839, 0.16450141829055337,
							-0.11773391192206738, 0.014246768793889222,
							0.24051567445289398, 0.052652298520594436,
							-0.131926178565616, -0.04261610323963653,
							0.20257927835243497, 0.2329136092605174
						],
						[
							0.4903164409397047, 0.6094568463693918,
							-0.009044378013631392, 0.3789097000213616,
							0.23930978263193747, 0.2310129723145121,
							-0.7072317273811384, -0.7136647729814531,
							0.5155672098042315, -0.7432587517375839,
							-0.5162563575857135, -1.2031444065874854,
							-0.7810021917190626, 0.2928077810153809,
							0.256090782261466, 0.07119117157418689
						],
						[
							-0.024858973505066606, -0.43438402731967013,
							-0.3373814908846933, -0.25995812151706843,
							-0.3116538764943566, -0.20880327825579972,
							-0.14553148497541504, -0.11335872056870935,
							0.09092272690337262, 0.06876734927680685,
							0.05960065226849887, 0.04487862510158086,
							0.039994921482489905, -0.1284119528165582,
							0.11069043989447398, -0.3412751050557567
						],
						[
							0.35580273223724357, 0.15958341115070507,
							-0.04269984969757718, 0.040733175645858474,
							0.4398390532937475, 0.34454591545390906,
							-0.6173240253635272, -0.2830283071355522,
							0.02759371215662977, -0.3317174555251334,
							-0.24655995969524835, -0.6823976955946013,
							-0.5199949100419886, 0.15743143354249514,
							0.16912723776151783, 0.0485437950578275
						]
					],
					[
						[
							-0.27845637230035636, 0.18882945781516036,
							-0.07679411460323878, -0.08478340050812279,
							-0.24511463438222528, -0.07151844831828796,
							-0.2964516450325504, 0.24295865665141872,
							0.30017762456633007, 0.20278400245145406,
							-0.06901363619851383, 0.18710262467416078,
							-0.19074415663913083, 0.2634168433383087,
							9.442358864209948e-6, 0.42222756589991284
						]
					]
				],
				"bias_lst": [
					[
						-0.2807647530307466, -0.5892406904805216,
						0.6390694045647856, 0.25176192356108257,
						-0.5567424968527392, 0.35441754192884595,
						-0.313556915929452, 0.33409466623119327,
						-0.7689556143733657, 0.5494933503770458,
						0.30736895690936555, 0.7782830347126241,
						0.8246167101233454, -0.5361725522079153,
						0.8951457195880398, 0.1690889564677612
					],
					[
						0.10990200871298994, 0.029676372158144795,
						0.1578202802909992, 0.02418077558905843,
						0.13022705329314863, 0.1922306822521143,
						-0.054099219750414596, -0.08999419521366213,
						-0.11157903743976494, -0.06408342763108255,
						0.006020443413360332, 0.030584272733784782,
						0.12218179769748093, -0.37905879261685343,
						-0.28450085816104737, -0.3032197821783758
					],
					[0.0835277478234696]
				],
				"activation": "softplus",
				"x_range": [[-200.0], [200.0]],
				"y_range": [-0.14300000000000002, 2.2409999999999997]
			}
		},
		{
			"raw_pth_model_path": "train_data.good/C3DNN_train_hessweight_1.0e-04_activ_Softplus_layers_16_16_1ddst5_stretch0W_100.0.new.new/epoch1100_2.57e-02_predloss_0.005_thirdval_4.0_stretch0_1.00e+02.pth",
			"id": 5,
			"net": {
				"input_dim": 1,
				"output_dim": 1,
				"input_mean": [0.0],
				"output_mean": [0.3488599999999999],
				"input_std": [104.23701003642293],
				"output_std": [0.827133846726151],
				"layers": [16, 16],
				"weight_lst": [
					[
						[1.229747497321087],
						[0.7431897298602876],
						[-1.3339955192649],
						[1.0264337454875376],
						[-0.09626476353964167],
						[0.6229273463651421],
						[-1.2428162689224558],
						[-0.9659844740819775],
						[0.5808098186819037],
						[-1.0715588968665613],
						[-0.15273499184380515],
						[-1.204817157836127],
						[-0.653677683768507],
						[0.21755297445400434],
						[-1.0333212342391562],
						[-0.7028417487886358]
					],
					[
						[
							-0.19367486257118122, -0.16263764931728947,
							0.03828805781452449, 0.24985253943823343,
							0.1463260821994515, 0.04557955828451546,
							0.08910369442706978, -0.08905551085561246,
							-0.11071644239765972, -0.2492369634987861,
							0.16430613000652106, -0.09268241218915084,
							-0.009525134466784362, 0.050021332349844835,
							0.19642186065839096, -0.2535313623178664
						],
						[
							-0.15509196061896957, -0.17015755950099434,
							0.09217486065689885, -0.6625328838369244,
							-0.44093985952051185, -0.28987435997909644,
							0.454908163689088, 0.05245754421727484,
							-0.20492506585898376, 0.2793420480925181,
							-0.4293228961046735, 0.17880643125934403,
							0.024434445971521543, -0.522994990527739,
							-0.2010782857027763, 0.25469910099732596
						],
						[
							-0.05259311542666791, -0.2978355876040176,
							-0.1571204557951617, 0.16708695524198425,
							-0.06120990089233644, 0.14705223940952766,
							0.019651386962820164, -0.005512910017219792,
							-0.16376695326547103, -0.03981998259486819,
							-0.18165355000145167, -0.27726774698848644,
							-0.26066916459928346, -0.1486539331588828,
							-0.13476843502355923, -0.2866729733433628
						],
						[
							-0.742152293828181, -0.30316733352128494,
							0.11605302376645528, -0.4754760638712681,
							0.11958481060752225, -0.13285660728465917,
							-0.05305274492904213, 0.0372685194448284,
							-0.12003982496310041, -0.0826150033513133,
							0.10221662690452583, 0.2671575906977243,
							0.3660495257664099, -0.15386853407879222,
							0.29565722075957707, -0.00668111160565923
						],
						[
							-0.1861025193818796, -0.1895958734496995,
							0.0384750984954854, 0.1049530070173087,
							-0.14714953178351764, 0.2774219492269018,
							-0.049579147540266724, -0.07839802416672798,
							-0.09347299751701638, 0.13078221488963604,
							-0.04156325998530862, 0.1476202578218235,
							0.07743944830008645, -0.14945850223926643,
							0.02666470501482935, -0.13962617462495067
						],
						[
							-0.5643721641173395, -0.4935876813300181,
							0.11570366333974225, -0.5883367052473375,
							-1.4088971887261926e-5, -0.2558564026785351,
							-0.013636227053500741, -0.11929698257174413,
							-0.33191714918109005, 0.0719385498378766,
							-0.24670563656862735, 0.17989152514009407,
							-0.21094418618286512, 0.11754908090848722,
							-0.05051133826263779, 0.073612043721419
						],
						[
							-0.7289252565298817, -0.43016230168320513,
							0.3483350640532112, -0.45836593292728073,
							0.1518927762728488, 0.06919661527843268,
							-0.14410080418582305, -0.04608902101728783,
							-0.2842764981637531, 0.25551271327310504,
							0.13493752831478617, 0.16688351168707183,
							0.0039269491496606015, 0.19721921322479702,
							0.3287636701524496, 0.274839295922778
						],
						[
							-1.0960601745486456, -0.3750108707832755,
							0.10239572092845317, -0.9780289361319608,
							0.0852445207687497, -0.5134760501780338,
							0.25772642590152445, 0.5712349625259121,
							-0.023470282912833654, 0.4733388908145156,
							0.10136358010647203, 0.48637785036016895,
							0.18686124576172478, -0.10546257807091901,
							0.4451739991635808, 0.3386696700780366
						],
						[
							-0.9239293304636462, -0.3706790017018517,
							0.17155070834441213, -0.9152317929658228,
							-0.08348393823212583, -0.6311280361455323,
							0.596872982144731, 0.05274525371350881,
							-0.5933589628541809, 0.218816412240038,
							-0.36417765680962144, 0.09190954435986973,
							0.09591258671116101, -0.1134927132353365,
							0.03912062036701099, 0.1173022428922018
						],
						[
							-1.126687081504951, -0.48042338231400317,
							0.1554307906676399, -1.1005524413083678,
							-0.3476608372709839, -0.6572994867889276,
							0.29057417808901936, 0.12892075220827173,
							-0.4368784980681482, 0.26810481375249473,
							0.13548424676589108, 0.1195083218066225,
							0.024078642607956148, -0.11673304131167465,
							0.13229974203850514, 0.2770893704529853
						],
						[
							-0.12591439256831857, -0.22615394474100486,
							-0.00028285102078932234, 0.015546563681776863,
							0.15835467297367706, 0.244871206514038,
							0.055828098881065776, -0.016963286461918237,
							-0.005380674373229571, -0.2980198896456678,
							0.0388066845684565, 0.06931220439160977,
							-0.08622988461299702, 0.12128524220500371,
							-0.13798986202910654, -0.2744797117129659
						],
						[
							-0.8015364409106286, -0.49241481182209285,
							0.14327396414293078, -1.0346070506906924,
							0.2217569540066069, -0.7677416105600843,
							0.5000181604518816, 0.2923301970398998,
							-0.18886598446604802, 0.41566012799777297,
							0.3011717164588849, 0.7310330954753708,
							0.15657317383231065, -0.23855765272224602,
							0.16865745817863256, 0.29808589407978064
						],
						[
							-0.6428543086598278, -0.3502842628136431,
							0.3949879102531356, -0.37257155360642596,
							-0.10103463426580532, -0.04063350886260834,
							-0.27635613327128633, 0.25459193211916253,
							-0.33514401794777077, 0.0913939126535097,
							0.19596024108099283, 0.20956795645277268,
							-0.019980670459073806, -0.11025673985776484,
							0.18884565073731152, 0.20200658565456628
						],
						[
							-1.5836512981635327, -0.654617347375585,
							0.10182134779594808, -1.315601008086026,
							-0.49268076551267415, -1.2373897359495671,
							0.693071154636759, 0.1783041880007572,
							-0.3680470767581517, 0.3100139405862303,
							-0.26928257728312344, 0.025243613030865232,
							0.03685981422148946, -0.5049889495210881,
							0.23083817899556447, 0.28902926234572635
						],
						[
							0.3169105598541879, -0.47885557435722936,
							-0.6562178199740402, -0.04103761580814066,
							-0.1469732268451147, -0.08603448460937785,
							-0.1724774759233688, -0.27982719579135334,
							-0.02142387658152081, -0.13186642960930367,
							0.20926479528376113, -0.17528872345968752,
							0.010377775426077587, -0.08576851021636629,
							-0.1943082227970446, -0.4721406150024737
						],
						[
							-0.8335033321670855, -0.6626800951280596,
							0.08199467571173519, -0.9993719196118906,
							-0.03228556940840469, -0.5947350870269906,
							0.2209514360238687, 0.23894269509836694,
							-0.5578185378227933, 0.32184614563977004,
							-0.18089080576888011, 0.03804348825598214,
							-0.10483560046830488, -0.3765981487340341,
							0.21521237215156566, 0.19818249171959018
						]
					],
					[
						[
							-0.259501110120588, 0.12088951210218933,
							-0.1216698774950281, -0.15370291001832692,
							-0.19992822114789585, -0.06411531508991768,
							-0.3117524999729526, 0.38913828944526613,
							0.30074154828036376, 0.11161510573645503,
							-0.08162129280830417, 0.20329912259169286,
							-0.15338115943226077, 0.35431913021891187,
							-0.13132067322629254, 0.3466475932097296
						]
					]
				],
				"bias_lst": [
					[
						1.0774173932937061, -0.06287096184606271,
						0.34815583800236904, 1.3511433651519065,
						-0.3844516837007651, 0.9084420507777241,
						-0.7109818228270424, 0.15461275684610307,
						0.043210169609112226, 0.1785268960815083,
						0.4494097755594172, 0.45026742648053497,
						0.3050778360730355, -0.2738020338709667,
						0.7694940471133181, 0.30142060164740286
					],
					[
						0.13468479739468037, -0.12590921000500324,
						0.2476668666966206, 0.06402870766781411,
						0.06869590275231031, 0.11989213205450461,
						-0.043876950103450246, -0.015932671151012455,
						-0.24132835239203876, 0.001262723696121854,
						0.006893040939639398, 0.22892645322882751,
						0.042677129060369995, -0.3275434171579135,
						-0.1480432730525588, -0.3718668983029622
					],
					[0.045116936029627956]
				],
				"activation": "softplus",
				"x_range": [[-230.0], [230.0]],
				"y_range": [-0.135, 3.686]
			}
		}
	],
	"2d": [
		{
			"raw_pth_model_path": "train_data.good/C3DNN_train_hess1.0e-03_layers_32_32_2ddst01_stretch00.0e+00_boundary1.0e+02/epoch299_predloss_0.061_thirdval_2.5.pth",
			"id": [0, 1],
			"net": {
				"input_dim": 2,
				"output_dim": 1,
				"input_mean": [0.24999999999999717, -4.934324553889585e-20],
				"output_mean": [0.1749260000000034],
				"input_std": [0.22637137628242698, 0.29423346739168554],
				"output_std": [0.32229178865604285],
				"layers": [32, 32],
				"weight_lst": [
					[
						[2.0464475903764803, 0.004361224021305481],
						[0.1503971009066305, 1.4763611547657323],
						[0.45561615215559986, 1.0761337804619306],
						[-0.18223816114818353, -0.0021117671217964905],
						[1.197305975108057, 0.004273369020223754],
						[-0.3514813460880269, -0.09094352365546769],
						[-0.0641620010236708, 0.05489543281223461],
						[-0.04237017880531925, 0.006411991616964455],
						[0.06425169692130983, -1.1581555631321687],
						[0.4657466002359055, 0.7243669798129384],
						[-0.053751495509089454, 0.013517566384006608],
						[-0.7719586487303584, 0.02481533780819977],
						[-0.02668279390668537, 0.046019903103448306],
						[1.5408479403714332, 0.9920750288513165],
						[0.05906018645670449, -0.04724279488317075],
						[0.19352919352043635, 0.3530546096093926],
						[-0.9151275848114567, -0.636372079087638],
						[0.10855814600352279, 1.4081877747756733],
						[-0.8553350375056177, -0.4848074833292254],
						[0.8079316023952153, -0.6569070989737217],
						[-1.0461429960976667, -0.6615718721362948],
						[1.5517214147177016, -0.019364957697394908],
						[-0.3797458232722943, -0.16699820806871798],
						[0.4659916248482584, -1.425586914805926],
						[1.8711544868113008, 0.7862235735460917],
						[0.24158817541181166, -1.277313146720406],
						[-0.23644243272303667, 1.507187653975332],
						[1.671689650745757, 0.041790316104010065],
						[-0.0688534853382553, 0.021445055619495914],
						[-1.6439847832987007, -0.0474502208988897],
						[-0.0858474991288117, -1.3479073309979508],
						[-0.15805883536436638, 1.7339944618795096]
					],
					[
						[
							-0.09664182876397023, -0.24468020377377653,
							-0.00952378071921107, -0.06676766666226411,
							-0.16191411333818317, 0.07072772048490283,
							0.02040023009275884, -0.016410130168373088,
							-0.18458500871886505, 0.1383896579759311,
							-0.15693869708985683, 0.15855484585677349,
							0.06593597827005347, -0.08847381307163482,
							-0.04959408812210924, -0.1144114573719688,
							0.0244223534973419, -0.19190879719667167,
							0.14148425141969073, -0.21568647951334985,
							-0.049110838397990846, -0.011053850570389127,
							0.05715681602763669, -0.26134144216586164,
							-0.06562356122792612, -0.0672325023735948,
							-0.19029942427679605, 0.17884391368300953,
							-0.18018827087101122, 0.26910839330986264,
							-0.19208733773889222, -0.013288029078976775
						],
						[
							-2.185294187303862, -0.3551501665746514,
							-0.3509439560278716, 0.011125460412672782,
							-0.8413556404295532, 0.2466583195955831,
							-0.206172620988426, -0.23255960110513188,
							0.3425819632645616, -0.48182821971829154,
							-0.15391740256343656, 0.04249015916412846,
							-0.38270961030820033, -0.846908992502048,
							-0.04031866713598551, -0.6180176090468531,
							-0.07778964603566597, -0.1751840438187683,
							-0.006204365243345455, 0.2736925002557975,
							0.4708906839042381, -1.1475608475297627,
							0.060237338424303934, 0.5299008033107013,
							-0.6084355085310388, 0.407390406489347,
							0.05522388984312826, -1.5422100218998926,
							-0.13103269227204475, -0.3332954010161531,
							0.6432432100766883, 0.06593744661229582
						],
						[
							0.06959998487903125, 0.6773674145122758,
							0.4384068909008557, -0.2861585930523976,
							-0.09040318547395862, -0.16788099093155603,
							-0.042340726669190136, -0.371635803323011,
							-0.35178066913670303, 0.14353060474425064,
							-0.24834812306090484, -0.13234891361020062,
							-0.14141898853335977, 0.25948162273565606,
							-0.293700149551724, 0.16283728177109189,
							-0.2627541043529472, 0.48314442656672935,
							-0.12222039423493687, -0.6876129011853134,
							-0.2516402941030072, -0.32141831074661914,
							-0.3033600655936976, -0.5416158807624014,
							0.12370520057014753, -0.3399871668390094,
							0.44952254233538386, -0.4262355128563367,
							-0.2929809470481789, 0.22245997073154972,
							-0.06706340500322895, 0.5250897197970847
						],
						[
							-0.11621548385755216, -0.2576273346501899,
							-0.03059968230395859, -0.11571397057345201,
							-0.018188136415793348, 0.06726042280411086,
							0.057232026250710555, 0.02134752542063322,
							-0.11205177742070897, -0.1705374349749582,
							-0.1441625349701332, 0.13240293508990264,
							-0.08424873937602799, 0.009535700710568105,
							-0.16052396954139153, -0.23659556180968652,
							0.19236228757649454, -0.09079604562728931,
							0.04335855539911711, -0.19326126623684892,
							0.17143572198502494, -0.12323011764609569,
							-0.08976608441282535, -0.30806747908988696,
							-0.13536580190632677, -0.1828991238590735,
							0.11399429716074796, 0.15164558808039597,
							-0.1590021204205372, 0.08355215642332763,
							-0.1756551731820625, -0.06507714496008765
						],
						[
							-0.9436585599143468, -0.09421916120321734,
							0.1813193968469767, 0.239472499055722,
							-0.22057164892253628, 0.2796386496803507,
							0.1770373206154732, 0.4742087287561416,
							0.17054574726405938, 0.09328174060340041,
							0.36337114249119157, -0.24094203690645158,
							0.2156717688571887, 0.3674277374296489,
							0.34108361889302197, 0.1112860046882546,
							-0.308538933441965, 0.09556331940151813,
							-0.12443045339881113, 0.2472646526879838,
							-0.1385936357832105, -0.33713198129004707,
							0.26846068461740474, 0.0012578856656765647,
							0.014964460895375807, 0.14412075309850303,
							-0.05634674513070551, -0.3797096765157021,
							0.2899168855390895, -1.0376353809980063,
							0.43562967406468095, 0.1531346045070032
						],
						[
							0.21922921026450767, -0.26005519427919055,
							-0.19677668831259407, -0.2433593493787414,
							-0.1913708298560955, -0.2099639753501165,
							-0.05301694111008616, -0.04522521372173654,
							-0.02755614937182237, 0.1647509429991159,
							-0.03252763083222364, 0.03502751803870019,
							0.06462586175113856, 0.024633135601308462,
							-0.03641191842461336, -0.23737788621792077,
							-0.07478389206865226, -0.11233832862502474,
							-0.021614033775666865, -0.23016320034421164,
							-0.026275550749852862, 0.06733823234658232,
							-0.25976907955300693, -0.18486487940898577,
							-0.13831783286037624, -0.11104568953689656,
							-0.07202620562004183, -0.11803692718161021,
							-0.2191046603276699, -0.049934409447598464,
							-0.0698973001069279, 0.026466648082612284
						],
						[
							0.5130999224144723, 0.4042968386629732,
							0.26617389315371565, -0.16771806665414177,
							0.19556909823577068, 0.004301155806629096,
							-0.2033336607237146, -0.09003691966637646,
							0.033270416511715806, 0.0965179890473572,
							0.04336713884389387, 0.06312217619888098,
							-0.012917650896481905, -0.013515537789407072,
							0.06535488957352338, -0.036743628887827305,
							-0.6254003697552482, 0.26980772862336544,
							-0.3353474466992034, 0.20158239901798206,
							-0.45940620339073596, 0.19810706850737367,
							-0.24912914872943967, 0.3871682829899473,
							0.2553769160307626, 0.12284663327040499,
							0.0934367508613967, 0.25773535776016987,
							-0.1337276474815978, 0.2646448904987178,
							0.16179795153027224, 0.4525073196251208
						],
						[
							0.6715459480391892, -0.7023377634452888,
							-0.24032215868503254, 0.03220418249148062,
							0.41963372519590547, -0.10820741292707814,
							0.22613480249795867, 0.3429195999585649,
							-0.4056954887418881, -0.12266760271816078,
							0.3236740405957764, -0.13235480386691628,
							0.25309007556059043, 0.07267587723876084,
							0.1774629272238094, -0.03261566984788556,
							-0.731973551882803, -0.44903738030582857,
							-0.46582102065471376, 0.21812935479783838,
							-0.6016561982859614, 0.3885842084382745,
							-0.09495749068897637, -0.35504571747446273,
							0.38355364407636683, -0.2752457875259541,
							-0.5396834738754573, 0.39017899672561934,
							0.3849884629901496, -0.6778369463724179,
							-0.604808227552163, -0.7957911511516248
						],
						[
							0.05176661473526586, -0.053899093922475015,
							-0.1568163745008119, -0.10706424622294206,
							-0.06707435496862892, 0.04292306571129308,
							-0.13001995525653914, 0.030466787253127688,
							-0.263188159114244, -0.028172109299236907,
							-0.048438529622113466, 0.13336947845071118,
							-0.07374455370071407, -0.07027584474081226,
							-0.3018046260824555, -0.18374322915480626,
							0.040932261899245, -0.11493931406406352,
							0.2099915449101201, -0.22912412519465192,
							0.10796561245335697, 0.021952041628038186,
							-0.013916392145476887, -0.1491688669017507,
							-0.13021520373955153, -0.22943350126165826,
							-0.04747722414180907, -0.03583295109916565,
							0.03671607329570993, 0.18018271226663618,
							-0.15742811066769233, -0.11514493222029117
						],
						[
							0.21736283921702812, -0.1764536877397313,
							-0.17451111251432042, -0.23543139920397338,
							0.04084373981375832, -0.05475627150803055,
							-0.18520667493878895, -0.1988902974162793,
							-0.13976350496427814, 0.06622650227385378,
							-0.31321940801256654, -0.06325503089793733,
							-0.04629445335160414, -0.031055973150867684,
							-0.22000437301078166, -0.13633283821929695,
							-0.07780605548325323, -0.19314798629391222,
							-0.3244242157646683, 0.006659851611415315,
							-0.1705347435068505, -0.18398270941364012,
							-0.3518871698694341, -0.17520445928813538,
							-0.03108326595069327, -0.13395564794797252,
							0.05263082100080299, -0.1375882488126272,
							-0.18725371956256887, -0.01836829544229808,
							-0.07063894750209751, -0.08080954053918081
						],
						[
							0.2580600570742352, -0.32798751233460777,
							-0.16394690531367523, 0.09984848269221934,
							-0.055271186650275944, -0.015764685013322836,
							0.2044388025447405, 0.19697160414383943,
							-0.3260450339815501, -0.14350229012763085,
							0.010497988345476985, 0.0813959793943434,
							-0.04447185351815054, -0.0036707825318758576,
							-0.11299538545221094, 0.14732366192407445,
							0.2862387921360697, -0.22856000906952534,
							0.05853400818905205, -0.1601391135587933,
							-0.18297418924815803, 0.1665493229417897,
							-0.11393581340987902, -0.35880061587713097,
							-0.0020387588115787407, -0.4203837416523445,
							-0.3710558227464415, 0.06853434620008159,
							0.09858112986437181, 0.14713932754670883,
							-0.36044305170081525, -0.42738529893483357
						],
						[
							-0.006673623035847822, -0.19152093771401069,
							-0.13522469868092213, -0.07016301305053732,
							0.016100003523058074, 0.024286839053852136,
							-0.07616875252205947, -0.2620070378412758,
							-0.06645887075362569, -0.04217124628664379,
							-0.17986978027934658, 0.06077726988901433,
							0.056192922101768794, -0.11248073167516957,
							-0.1525518382074631, -0.11944318876553106,
							-0.09512506700099138, 0.07699572046146053,
							-0.0561948612061327, -0.10823824485354899,
							0.018451232447251616, 0.07790182200612154,
							0.07455765200038156, -0.2076262056185036,
							-0.07384919606730245, -0.22286816812668733,
							-0.040823305515826594, 0.0036083506032622554,
							-0.01258894243110778, 0.06769537477994603,
							-0.08860411287615316, -0.12285538655660246
						],
						[
							-0.06742524259743926, -0.1281599658360295,
							-0.2375551150703005, -0.20459412221697285,
							0.057826379057207465, -0.12639465926768592,
							0.12560632209613445, 0.0673777151472678,
							-0.24828768694907663, -0.19169711571267364,
							-0.05775730620722863, 0.14762999897960175,
							-0.06761248578515482, 0.12450516962806389,
							-0.08054068186277799, -0.16231589228919033,
							0.2180142077224277, -0.037242451516028674,
							0.23697461736933043, -0.34288964400098576,
							0.13181273913145944, 0.08967673031203721,
							-0.09529439014937989, -0.3911451502261233,
							-0.1639391194252105, -0.11698544811968517,
							-0.2963070283824093, 0.06866870488734285,
							-0.027253849923472136, 0.2681711259480433,
							-0.14198410931306213, -0.07479253295455025
						],
						[
							-0.06696078026898315, -0.042117785331405845,
							-0.03653633271197231, -0.21305884917732437,
							-0.05057520682266984, -0.009907220936104069,
							0.06333843854682503, -0.052279476740042415,
							-0.12992415427235632, 0.08937063853503094,
							0.0159395319441674, 0.099331633396035,
							-0.21832736242433998, -0.14863970199359447,
							-0.15425303927744818, -0.12235795374477185,
							-0.04246303058882859, -0.12474185535917064,
							0.10411842163962755, -0.06287149051591115,
							-0.0817383833694266, -0.10804564058639357,
							-0.054480898866094814, -0.039769050250992165,
							0.064889663205843, -0.002364971828220249,
							-0.16060239368554832, -0.186420027397723,
							-0.09352237177049881, 0.05231372438261715,
							-0.06845740843992217, 0.05464589644886035
						],
						[
							-0.16118483138041567, -0.01406013195106026,
							-0.09120613275069898, -0.20132612558136573,
							-0.3273123688488776, -0.031244030250338697,
							-0.15709024656563436, -0.303946016770639,
							-0.13081821016020345, 0.04189810885755218,
							-0.2837528825067656, -0.3285716013874573,
							-0.21253591661742172, -0.1946948676762655,
							-0.11446417920336417, -0.12054984349028598,
							-0.1788497402703772, -0.10277522199453819,
							-0.2295021525109491, -0.06763032258438388,
							-0.1018023322940369, -0.007603081454187608,
							-0.09392242292483764, 0.1780522822991537,
							0.009275393677491769, -0.1910645635404789,
							-0.013476403534114209, -0.11011989440562125,
							-0.043875848392459955, -0.07312562250047042,
							0.13106863402755417, -0.06915752672810395
						],
						[
							-0.07482803636129505, -0.24552758364954405,
							-0.3925138880644122, 0.09457074118467804,
							-0.06037529572089882, 0.31497233284221793,
							0.0021325821284590954, 0.05565208551091852,
							0.32997716966181057, -0.14363813171650008,
							-0.09365720919113428, 0.30713905504549444,
							-0.22824694550184133, -0.8469703651292056,
							0.09994132676792232, -0.1841576720472064,
							0.2680493468215598, -0.15120246261700576,
							0.21082720823412027, 0.3134262587374825,
							0.3251262569492464, 0.1954724958054707,
							0.26478944144403554, 0.40114142042136935,
							-0.6275814761532243, 0.5157119736386938,
							0.09812300461731058, -0.042772090873902546,
							0.028727123347107655, 0.12723025037873564,
							0.3535975921571909, -0.06302540572832394
						],
						[
							0.27684811490310207, 0.15213773673375922,
							0.16985909525964554, -1.3045670054328715,
							0.49213224453363924, -1.4365386396637327,
							-1.1724634208660023, -0.9957075164267768,
							0.13717289356820592, -0.0473794698041825,
							-1.0807533609668867, -0.6410219369551592,
							-0.8146852932026278, 0.20992453067643527,
							-0.31620305396523585, -0.14918263043754748,
							-0.6645969158246825, -0.011804736840515183,
							-0.44435324947046423, 0.3611784502399045,
							-1.0918533802208874, 0.13926546170683826,
							-1.2568033549795212, 0.7092308740648795,
							0.3994408061979342, 0.4324539697025612,
							-0.17683065881873555, 0.03390398993706847,
							-1.0999596499187105, -0.38201829240748475,
							0.1110292743931325, 0.05067833002965299
						],
						[
							-0.6633367833263225, -0.00417378592001021,
							-0.2277941443601427, 0.07562438561003207,
							-0.09627154671884719, 0.02387207606187045,
							0.07844757932007584, -0.18823548523748038,
							0.1477007813540563, -0.1661042017754344,
							-0.08716167355801992, -0.33436632143824213,
							0.04657580983115678, -0.10041089060305741,
							-0.10307023032915, -0.06947090662876479,
							0.12989460399754033, -0.09476463818822789,
							-0.1523483181516337, 0.1863375078349055,
							0.14057456518689154, -0.3123193273022892,
							-0.11112728805263447, 0.10411938652065382,
							0.08203092634084563, 0.2803810799181239,
							0.23639909427982586, -0.12301433482139487,
							0.0948322973113801, -0.6927733055015879,
							0.1425469362794492, -0.007160802979342376
						],
						[
							0.17450773222814966, -0.432818243624875,
							-0.8111685301903943, -0.526927114090696,
							0.18249734245864996, -0.24521483795404742,
							-0.855624633234387, -0.5824634948369497,
							0.24133190628701043, -0.72427205634228,
							-0.7429228376373449, 0.05388628374457182,
							-0.6294069273710402, -0.4950237121106683,
							-0.2559207325671832, -0.6249084447717255,
							0.28479995260098706, -0.35795790823406487,
							0.3858904521896353, 0.43986320174427274,
							0.10661099750506149, 0.2605128049828599,
							-0.09275494603150924, 0.9049183300543685,
							-0.636581450016605, 0.5099683008356509,
							-0.3029896036519728, -0.109164876944593,
							-0.7183488866038573, 0.3508838693494536,
							0.42854625111495354, -0.09185663482830829
						],
						[
							0.013111679704293975, -0.14333315256024978,
							-0.09134090275846397, -0.052300936278782566,
							-0.12309215452274701, -0.037518969411804895,
							-0.23853896769653724, -0.18215526113433014,
							-0.2687359153758526, -0.058640844481044056,
							-0.19254040035791778, 0.026956833167156673,
							0.005842241200126394, 0.05533485139320447,
							-0.06804488212562203, -0.16349888925705278,
							-0.12430282436712202, -0.07286192749795835,
							-0.1451493752013733, -0.12805343274873746,
							0.07714909492353368, 0.13770462697684027,
							0.02309016546953093, -0.3470521783212244,
							-0.1537203536828193, -0.13317712302248147,
							-0.296682221826579, 0.14983897576471683,
							-0.1302357066963831, -0.1618704123346542,
							-0.03139359205101553, -0.2758735181986237
						],
						[
							0.5981497261890147, 0.44829958922015684,
							0.04294861091698133, -0.19099821009153198,
							0.26676262720629373, -0.2807073828980342,
							0.03826471387878326, 0.025391746992720204,
							-0.052525349161688786, 0.000758754923718153,
							-0.1410381748130769, 0.008352477428504016,
							-0.19662552213763396, 0.054541996064153726,
							0.03828092042775389, 0.02627697725328402,
							-0.5898828504592807, 0.17568896971365336,
							-0.4209330848435132, 0.44253580978489987,
							-0.2673822974029917, 0.3794280569449926,
							-0.2510586311187538, 0.3735233908951218,
							0.15987210051391518, -0.024499422251115847,
							0.1018384129644781, 0.20303185552562905,
							-0.01919502528875166, 0.163324378388532,
							0.13480675721676122, 0.25769481098151803
						],
						[
							0.42547386575278917, 0.433013750143847,
							-0.027175776229222078, -0.29535175239303174,
							-0.04582239267042295, -0.44264531355936654,
							-0.40874503773647, -0.5750658165494291,
							0.5678212403048116, -0.23764751398681533,
							-0.2601519577195846, 0.38291483039308627,
							-0.43263499502991815, -1.0365714320649666,
							-0.2509304400705065, -0.4227541926703553,
							0.11754481970628808, 0.14353564110031644,
							0.08820552335888601, 0.29671349256007795,
							-0.0845636725626353, 0.03561948390966046,
							-0.09482304975848894, 1.0182870939299415,
							-0.9363307597586227, 0.7230538367136569,
							0.38156984193902155, 0.2187533289281767,
							-0.5277198034878468, 0.8905232529864554,
							0.42608893295169525, 0.6272188000050184
						],
						[
							0.27615891940480886, 0.24056526034638664,
							0.07263378392293365, -0.17367021475631064,
							-0.0569723754910325, -0.398821468744156,
							-0.5044544522736322, -0.3864506705243848,
							0.17845459814164488, 0.17368569292911673,
							-0.6036727081394855, -0.11846254934935573,
							-0.2525969348009549, 0.10134633679610065,
							-0.40333590072613346, -0.08829886663575937,
							0.6582696268015849, 0.23402166113764036,
							0.22945219743134096, -0.3976565361628341,
							0.3317155903219522, -0.389681371038454,
							-0.15869417811986664, 0.1376102874402734,
							0.07251352793568777, 0.32308580602784,
							0.035901567330546565, -0.07561548114703388,
							-0.5381562125526226, 0.6107718284392649,
							0.2061966936168284, 0.41955245446740624
						],
						[
							0.6745898546311634, -0.5793562932385715,
							-0.061545388516211025, 0.06485643223474744,
							0.3646885177929288, -0.14838225113560957,
							0.339912098082811, 0.2501937995332343,
							-0.4643677792426725, -0.08289473929624261,
							0.08407721962887356, -0.08072696335981473,
							0.391190185648252, 0.24420638220264002,
							0.19902290452967789, -0.03146780036790122,
							-0.3790846779096322, -0.6094594743302845,
							-0.21202040741650013, 0.3431587127463233,
							-0.49042903837635765, 0.4440819885487747,
							-0.27771846728791383, -0.3917350151163007,
							0.18887640792854438, -0.3193553245510854,
							-0.5741326264808839, 0.3634376446345588,
							0.14719817460602974, -0.3798201188914291,
							-0.4801457352448296, -0.6927081135364845
						],
						[
							0.029276306926373803, 0.49208913474795907,
							0.21118418066624742, -0.6946988714276032,
							-0.1554491555091716, -0.5873833780978479,
							-0.6911452128749732, -0.3756717683424805,
							0.22410421579402354, -0.1599139026905491,
							-0.5619850783802698, -0.11964008228157824,
							-0.3090398689015373, 0.06866131323708288,
							-0.1618525585900209, 0.021306203149507222,
							-0.4014350070482159, 0.3947881329916621,
							-0.2796663484449553, 0.2961057242769701,
							-0.31494162408664605, -0.033801408289925755,
							-0.36343574023044134, 0.2922282225973166,
							0.17580844484500613, 0.3113292439667543,
							0.367686098275729, -0.20587699529103304,
							-0.6133136334737362, 0.6308615670440971,
							-0.014750965967392483, 0.3293731686833918
						],
						[
							-0.3765667390486088, -0.07835784025601372,
							-0.15889534780521875, 0.02929111520045352,
							-0.045913330903041366, -0.12325132350485211,
							-0.07909000738198912, 0.0763605002521673,
							-0.11284199445450781, -0.10764572483726556,
							-0.15672912267540187, -0.2013113006256271,
							-0.06867750209353493, 0.07185323122989556,
							0.10543114764056824, -0.07677022046354239,
							-0.10707870865962223, -0.045419614035603545,
							-0.030913309370222682, -0.10426310890389803,
							0.03263966437900316, -0.24753428966667454,
							-0.10545132712258529, -0.25458898568302235,
							-0.13017019337172187, -0.06729854293550348,
							-0.15541778778313237, -0.021897753232733824,
							0.19738688121283157, -0.22441142799271524,
							0.20063987763972477, 0.10278159837501817
						],
						[
							-0.028422817564338357, -0.16538054693820053,
							-0.006024425928514034, -0.01892038181582335,
							-0.23691417518259056, -0.2285635120652721,
							-0.34595242775818325, -0.19471220046000828,
							-0.0067542864176272, -0.19770994752067328,
							-0.21781173665627573, -0.014696638871052572,
							-0.17596802378739293, -0.0040216462765149405,
							-0.2833647345089229, -0.17220075275409066,
							-0.0532334553798293, -0.012191812805435985,
							0.030860266539419944, -0.18158434570141999,
							-0.07261852075352669, -0.011925048747025385,
							-0.024643547168358072, -0.08128284575129624,
							0.06282228827323343, -0.017840893235908577,
							-0.15926067372783176, 0.006960790026333403,
							-0.27024693231170993, -0.09834841952483844,
							-0.13720110656822213, 0.014413557159090477
						],
						[
							0.3192679980836654, 0.25065478154033977,
							-0.0005278916996192019, 0.05485052139581716,
							-0.15301293120577386, -0.22092273735657939,
							-0.2856735539605951, -0.13547154099754213,
							0.18883548420889149, -7.871813163014014e-5,
							-0.0022253580227544287, -0.045595363603775495,
							-0.22140109237116246, 0.06360181472395686,
							-0.03292837142782009, 0.2863309941004876,
							0.13472050197455876, 0.09401220238446585,
							0.17599962790858442, -0.12291651714384608,
							0.07872346844143123, -0.2047991506963308,
							-0.005685754772752615, 0.023394844346946705,
							0.05901575676955762, 0.04695564027544198,
							0.09710606606669402, 0.10738659012647128,
							-0.05569284102901288, 0.14522319992014512,
							0.22069369383214293, -0.005471110230394656
						],
						[
							-0.23318857916228194, -0.1988778460017163,
							-0.16715646474429302, -0.2864319694584351,
							-0.028012141067533757, -0.00527779779395729,
							-0.14630178698552504, 0.015813551956150952,
							-0.2467656829895158, 0.020655015638157703,
							-0.15703269299579578, -0.013079869289034821,
							-0.22876278229334676, -0.003930716317417438,
							-0.2797810150247033, 0.011842535995585449,
							-0.007738103192825589, -0.12979624810361567,
							0.03986869972092773, -0.16412463764894805,
							0.06392690594214706, -0.09961143632398005,
							0.058537526770572244, 0.015470537121699494,
							-0.00596062416348548, -0.2919464284415031,
							0.03876335419785308, 0.013496054827950308,
							0.11358831586044908, 0.09132981953331852,
							0.03684695912532118, 0.05373284181441503
						],
						[
							0.21761245167614232, -0.19678481711163676,
							-0.13558257421778747, -0.0938900935098484,
							-0.13167624029784414, 0.016726372328373443,
							-0.08146293300493263, -0.11569081541755855,
							-0.32834762509313464, -0.17783860160483742,
							-0.22578203679611483, 0.021810608847456482,
							0.0683656483110894, -0.0983994688409665,
							-0.12101057772117649, 0.0016855334427195046,
							-0.0009321843495501037, -0.06638913087656043,
							0.014878345084455399, -0.3642173493466337,
							-0.0017175826222807359, 0.05004376733148289,
							-0.07148162583333595, -0.272874401828211,
							-0.016881609349170476, -0.031653346395599954,
							-0.31486004477387425, 0.03834795445246489,
							-0.00814201223851755, 0.08450347178094926,
							0.046832757570367485, -0.049887080832979304
						],
						[
							-0.8081401627754412, -0.009644370320291008,
							0.03649075343495271, 0.14831116929423174,
							-0.10414787845212539, -0.06752249257058536,
							0.13989284017736248, -0.04953489122342622,
							0.39237828666558483, 0.00211910049314814,
							-0.05693550970356273, -0.30577033676852955,
							-0.11739428027872008, 0.1530300635562644,
							-0.02440535408708497, -0.1359313567585835,
							-0.22581468267044455, 0.11327024856491497,
							-0.11659889320219764, -0.02394880315242285,
							-0.1319398910995527, -0.07911327094303865,
							0.020139415870931692, 0.09464803655596636,
							0.12150797120144417, 0.11300399988892322,
							0.08337988491719224, -0.4315805135513091,
							0.044029646657698145, -0.4635513090320828,
							0.40381206475676085, 0.026934462862431587
						],
						[
							-1.5089893788406687, 0.352368235789244,
							0.2957026862827321, -0.27195132671117495,
							-0.9327832932089543, -0.20100113721450052,
							-0.07546019666883372, -0.31037652085460954,
							-0.43175468930470245, 0.2848817892806399,
							-0.05233934912657322, 0.033376813530744794,
							-0.1748817941779341, 0.07187029945803619,
							-0.6459137815861521, -0.20932979542495847,
							0.39599157413879693, 0.4256527582782155,
							0.41593954981948456, -1.3801715216530435,
							0.23015155613482968, -1.1925536137102641,
							-0.16841854834238676, -0.3336945992311004,
							0.07568542937275312, -0.6970223558172495,
							0.7791053682197123, -1.4756606019645617,
							-0.25648057852212036, -0.3475543303054275,
							-0.31821852077473617, 0.7401093412986951
						]
					],
					[
						[
							-0.029274370118549862, -0.7317581287637636,
							0.32203331513197336, -0.10462190787145202,
							-0.39160439982075945, 0.03160707991733327,
							0.26869267861259827, -0.19199728942660885,
							-0.07021874785730968, 0.023300589373581607,
							0.04039004965054957, 0.00730672106465481,
							-0.06409190441731934, -0.05421317396711371,
							0.003939503413995015, 0.23060599636929696,
							0.4439548734129517, -0.14732542091505274,
							0.38841709696489507, 0.043177801796233865,
							0.2252250270146903, 0.3800685372429682,
							0.319606353036917, -0.2852742726036989,
							0.28423298838494737, -0.11539135640311445,
							0.019978887356761715, 0.03848106201895846,
							-0.06696303995956084, 0.025170608050505024,
							-0.16726465571273133, -0.6821571531031482
						]
					]
				],
				"bias_lst": [
					[
						1.3487196705492464, -1.0221222795436415,
						-0.7430845137300415, 0.572812524230504,
						-0.7004558624322411, 0.6494552847994188,
						0.6443183099977186, 0.6545583464177412,
						-0.5083326855513169, -0.30048608852558356,
						-0.42629616394858827, -0.9110734074257698,
						-0.3735874969954956, 0.5701783540142618,
						0.004452129114752156, -0.8577503458889986,
						-1.9487891119546075, -0.7632291113619734,
						-1.759129452379687, -0.5525047824663302,
						-0.6026009330053234, 0.5000488817064536,
						0.04482022907506046, -0.914793340122221,
						0.15517842548271707, -1.0167734074400478,
						-0.5773032638021613, 1.2340691924016114,
						0.7563415832739628, -1.8493510375456983,
						-0.08592341845058256, -1.0479283308368579
					],
					[
						0.06731935512938778, -0.07544514030786192,
						-0.12958446898333356, -0.06323029933484933,
						0.5272610123829257, 0.06056692425562004,
						-0.24380753573703426, 0.386600498147009,
						-0.10448604048234504, -0.18596511202634433,
						0.06733237863182487, -0.11262417213242945,
						-0.11343697405510209, 0.00729434199858381,
						-0.21138699441328784, -0.15311052725830088,
						-1.1930092796864018, -0.13136196575649386,
						-0.8664555014221301, -0.050304582969553216,
						-0.12928707966452818, -0.5846719437220601,
						-0.6857876379250989, 0.23027029347015887,
						-0.4792363128640978, -0.04143633265751531,
						-0.12089750191617482, -0.07716588217261956,
						-0.010586134805578127, 0.00842230627526893,
						0.0007903134341030418, -0.060226920316153884
					],
					[-0.01395654293990033]
				],
				"activation": "softplus",
				"x_range": [
					[-0.1, -0.6],
					[0.67, 0.6]
				],
				"y_range": [-0.32600000000000073, 1.534000000000061]
			}
		},
		{
			"raw_pth_model_path": "train_data.good/C3DNN_train_hess1.0e-03_layers_32_32_2ddst02_stretch00.0e+00_boundary1.0e+02/epoch299_predloss_0.002_thirdval_0.9.pth",
			"id": [0, 2],
			"net": {
				"input_dim": 2,
				"output_dim": 1,
				"input_mean": [0.12659999999999988, 0.1265999999999996],
				"output_mean": [2.271295600000001],
				"input_std": [0.34359633292571506, 0.34359633292571556],
				"output_std": [7.161094401781103],
				"layers": [32, 32],
				"weight_lst": [
					[
						[0.9803665725754004, 0.6540324283938097],
						[0.40340197120846577, 0.7737899902686142],
						[0.6024069519755255, 0.7954428092772012],
						[-1.9267739189124555, -1.6125383772765565],
						[1.8663065920244262, -0.9716227039454548],
						[0.05160527890615601, -0.5725512032283718],
						[-0.08612996371760949, -0.14283808963825098],
						[0.23120443114347197, 0.10197143688487863],
						[-0.6866053891336228, -1.2019495996823324],
						[0.5961707154022552, 0.716403380843536],
						[-1.0407901258749404, 0.5522227801666496],
						[-0.7649432059151846, 0.43463529494203995],
						[-0.010329139349564522, -0.10521000197640587],
						[0.452852930724111, 0.45962034370274435],
						[0.47670145711365297, -1.038952283970556],
						[0.28391604075557847, -0.11643250678312629],
						[-0.950689809238021, -0.9560351027256058],
						[0.38762433743654695, 0.7055326055369981],
						[-0.04260644925653743, -0.22908592837012628],
						[0.8562170643973316, -0.19186368825180608],
						[-0.18000507721687525, -0.7043764903811723],
						[0.012458726999495977, -0.08954059371483065],
						[-0.33360311183165786, -0.7687907020682899],
						[0.9687410259374494, -0.8524114149761903],
						[1.0392522341893926, 0.8669283408512928],
						[0.5452634450191727, -1.1543668861447276],
						[-0.9823951962496855, 0.7410533309686589],
						[0.10489607847754029, 0.029995182272330438],
						[0.14511633540523067, 0.10049667360061722],
						[-1.3897346654266265, 0.8858103615955167],
						[0.27420963409598464, -0.9731654010646921],
						[-0.7880179756172583, 1.03197007648838]
					],
					[
						[
							-0.05899603801167885, -0.17152144618889556,
							0.09367888841729709, 0.08842426252260539,
							-0.21506649197468675, 0.18241094231636817,
							0.14731220366903863, 0.23608262201070657,
							0.02075126338819689, 0.250590421646092,
							-0.21073588393317075, -0.020476438864820274,
							0.2161267286093013, 0.015364600831138954,
							0.018486024099893746, 0.01919133870695337,
							-0.05871622952502736, -0.1280875809011179,
							0.24363304696410915, -0.14675719160236886,
							-0.1704072546122305, 0.15334532454455727,
							0.1081675163444414, 0.02618401124296456,
							-0.0520286946401166, -0.12721629098486242,
							-0.2211118208464967, 0.33939578929159697,
							0.01250991252986697, -0.0466556065967348,
							-0.09211500211848941, -0.011924517013162871
						],
						[
							-0.232577712964691, -0.1906407735005787,
							0.08609582062768739, -0.7459811164545258,
							-0.35866246911190847, 0.03236869494286389,
							-0.13099053896224347, -0.0361129605406844,
							-0.5493506842137504, 0.1690930629125305,
							-0.1396962750546931, -0.15554096416930926,
							-0.12381994914127253, 0.1309267871905398,
							0.031026239122614034, -0.07287825616567398,
							-0.6346548759321907, 0.03715176183478788,
							-0.15931597097305078, -0.363157695122411,
							-0.08728556720538808, 0.0360086070171308,
							-0.3379465978279758, 0.18263020087166737,
							0.003257071661378964, 0.03261341373993019,
							0.05488087511698171, 0.07677125147863904,
							-0.012530882213802337, 0.009795772049916883,
							0.054975880296428754, 0.06127211440782963
						],
						[
							0.08763398403632107, 0.1590400552579065,
							0.09883271355778678, 0.0024558396407141215,
							0.044322322217838016, -0.10708308677893298,
							0.052361865325649494, -0.30063566695291527,
							-0.157763041982199, -0.04788482128955238,
							0.04802366124035496, 0.004045157869230395,
							-0.09252824503954311, 0.10145012382264486,
							-0.19177394278587867, 0.06414121286908879,
							-0.05633213541304313, 0.07326274709485668,
							-0.08354613033882581, -0.049273369980570296,
							-0.21757031101614346, -0.0008338032393662048,
							-0.1735124855784801, -0.35915669317794796,
							0.07396819568148012, -0.23020873016570492,
							0.1543528182515282, -0.2803432150319878,
							-0.15804533187069134, 0.34971306495397786,
							-0.15804017799960998, 0.05031472812551192
						],
						[
							-0.06373118069703015, -0.14960028986446072,
							0.08249899586241817, -0.41475588361284615,
							-0.006474130061227686, -0.025806119479026394,
							0.013708779876919467, 0.09315743164637119,
							-0.3675627987522047, -0.05476848917564421,
							-0.09923230528874495, -0.07063433110761005,
							-0.06850926406039953, 0.12411082016782686,
							-0.05577000575857974, -0.14940338512133602,
							-0.22736919881629478, -0.004595040831545864,
							-0.20592194292766172, -0.1285792814458629,
							-0.06668374209871572, -0.09422148108434719,
							-0.2919148802428185, -0.014436157639182259,
							-0.0670839955144556, -0.033387154858475536,
							0.1900323584820735, 0.11509347220821817,
							-0.1328589533288027, -0.1733638283999109,
							-0.2128693528420498, 0.02837260776670804
						],
						[
							-0.17378289032369573, -0.16762151110814405,
							0.16458834853047824, 0.01796655587624468,
							-0.20991900196292138, 0.11640040264260543,
							-0.13240108905180123, 0.27448953933688264,
							-0.001895456482479172, 0.06218762927274035,
							-0.05931434515619602, -0.10919188160923758,
							-0.04762467355763145, 0.018958431751739342,
							-0.020212742208557143, -0.03706035801159444,
							-0.05407684527539046, 0.021018848063250297,
							0.1087451932519308, -0.1586533852558876,
							-0.2843990922977827, -0.06307307971057656,
							0.14144078116142234, 0.18292396394030042,
							-0.0063020930167738635, -0.14301736031395235,
							-0.1471421543954548, -0.045977087826670586,
							0.037122171089753, -0.1635483748203121,
							0.07913622773846755, 0.009630259693076258
						],
						[
							0.17887538109587645, -0.27875808930197615,
							-0.1598222009053783, -0.006630331071965738,
							-0.1663769538699514, -0.0800813212575694,
							0.06830493932074033, 0.20304393895650308,
							0.17791775231227633, 0.21387973500874732,
							-0.04271194843849644, -0.043209535621389385,
							0.19259946392389057, 0.09109911791479551,
							0.05532949230253484, -0.15501310667363785,
							-0.05900366322897598, -0.12957844588005096,
							0.12221700909492147, -0.11709433912282077,
							-0.03771479938193973, 0.17710204122356676,
							-0.1438249585273176, 0.045357476243787366,
							-0.1284640986773439, -0.14568666141939862,
							-0.14668748093986947, -0.025113941800828626,
							-0.0285204415119026, -0.19086973915155678,
							0.03388547006145114, -0.027298911380706285
						],
						[
							0.2943586059983347, 0.31258118498835186,
							0.3182777804882157, -0.3860532549041676,
							0.14183536157191975, -0.39469383074395886,
							-0.47789658269435714, -0.4635486497864283,
							-0.41467962246450235, 0.14105159468550907,
							0.38704989822941216, 0.2067432555458366,
							-0.2953611118570267, -0.09545478676298892,
							-0.41328955375174764, -0.23493630564565637,
							-0.5166978633007681, 0.2033068661194924,
							-0.533112359388622, 0.05411434912611444,
							-0.6152984038146815, -0.38624761663195645,
							-0.536287269459204, -0.21452703448702548,
							0.4407773457626712, -0.3264751326445568,
							0.0695208648834737, -0.4264487499180963,
							-0.32028559120498223, 0.5641960591797542,
							-0.3924463514203491, 0.4300072170893884
						],
						[
							-0.04686356583312205, -0.2085159357711242,
							-0.1102824845243286, -0.005539519729206686,
							0.022774473199401127, -0.2257596557354504,
							-0.19875489703991775, -0.031537810879190796,
							0.014414749293374067, -0.21887120335792984,
							-0.07412875866354597, -0.10961387951542369,
							-0.14382078009677782, -0.10464291622160019,
							0.07125954084886359, -0.2534717000327354,
							-0.13840497171404495, -0.09911146831295788,
							-0.14815463438990276, -0.032299293186956055,
							-0.1579760792255067, -0.06630361415862587,
							0.010355157567640017, 0.02733536541506105,
							0.07395815010129923, 0.0050417667132533,
							-0.13939922876666572, -0.16545842437377362,
							-0.014841069418560471, -0.00648915450158806,
							-0.16806321867163201, -0.13078747200475296
						],
						[
							0.024961582705730033, 0.019145210331118247,
							-0.06446670618513255, -0.609442218541042,
							-0.2264246984848165, -0.043810576485736934,
							-0.16019665640293462, 0.20808768839108324,
							-0.6833888071959847, 0.10426388586194456,
							-0.045086871871686585, -0.08736208747084684,
							-0.04000623188125388, 0.0005562957315910965,
							-0.19354972902996034, -0.12100714378030183,
							-0.5486916727650013, -0.034544597879776894,
							0.035486816449658815, -0.18747748333858688,
							-0.14439793062038367, 0.10955029377418113,
							-0.2806959622411111, 0.15281716975418214,
							-0.19663157579034457, -0.07728301847503163,
							0.05678066207421512, -0.025733280717593697,
							0.1260230566904984, -0.05528510095761668,
							-0.1774080638955972, -0.01584422531782559
						],
						[
							0.09846774879038225, -0.15470159444197867,
							-0.13570574764166257, -0.5332083556925714,
							-0.11285331421979689, -0.08022895146327302,
							-0.1414516274070317, -0.013603044676355605,
							-0.47906183864171237, 0.13813788253338283,
							-0.2774877674316831, -0.06030809357783917,
							0.0048119048547030025, -0.009322713045988243,
							-0.1752133935189356, -0.13386463375075722,
							-0.3970016794561642, -0.13801490224418259,
							-0.30923308080715434, 0.026746877439882417,
							-0.23948209990017333, -0.176553408248818,
							-0.45701870643888487, -0.011513974429965157,
							-0.11489059032483849, -0.06616048577326979,
							0.1680623601323917, -0.1692536886851701,
							-0.05311444892258815, 0.03371441528170701,
							-0.09290651304025133, 0.0031989095679870756
						],
						[
							-0.060720954228317456, -0.09758164103111874,
							-0.07100651282575997, -0.7036274994044316,
							-0.7270572662356002, -0.16417302827754404,
							0.22312474341996844, 0.3272084070996136,
							-1.4546535322986185, -0.050689292787474804,
							-0.17942603929865358, -0.010944054055035759,
							-0.06193217013239839, 0.06433653750195796,
							-0.1461197828725322, 0.11522550379584275,
							-1.0642912458451128, 0.03803403103595578,
							0.048103053253409474, -0.12525385596223745,
							-0.49508061019905614, 0.32054992361718526,
							-0.6466275513624173, 0.1437722234760643,
							-0.1923388032044648, -0.24843740351891527,
							0.058911124827025124, 0.14075231859928133,
							0.15804926656532503, -0.008415916898930108,
							-0.4016271450307646, -0.1152652503703427
						],
						[
							-0.05566537547453255, -0.09129062918181144,
							-0.044173291772442225, -0.3216143203668659,
							-0.013333865182591775, -0.026364370094074618,
							-0.08878664593771396, -0.15736173763265468,
							-0.2981238429520783, 0.03986547009722449,
							-0.11641482515968278, -0.07004606438142157,
							0.08354268316192806, -0.06394188925542493,
							-0.02758869514942851, -0.07784983927618778,
							-0.5103778941805744, 0.1538572476440481,
							-0.24704740793411833, -0.05992950592929174,
							-0.16688314038694244, 0.07795919742367674,
							-0.0679568294853709, 0.028044873425757916,
							-0.08343454972851304, -0.12286837575214164,
							0.05529335881194033, -0.06859319691165475,
							0.0343033007810371, -0.056608618339079146,
							-0.10042192672860009, 0.005974296926703247
						],
						[
							-0.11934790740047348, 0.02677090146876275,
							-0.07799668170417391, -0.7502174830115248,
							-0.14188866800798447, -0.2329372697239718,
							0.11338668747737872, 0.2544946758836861,
							-0.8032086590806436, -0.0034277283215261175,
							-0.057055789033030505, -0.06702345676822803,
							-0.010765946584906023, 0.28385102784099214,
							0.01969214952281252, -0.09968278317576365,
							-0.48504878951070846, 0.12956875767107193,
							0.02933676705998156, -0.28409013313128284,
							-0.21128939391459245, 0.2400290101056999,
							-0.420654671405937, -0.001105127211971097,
							-0.20747533821891354, 0.02557240357381499,
							-0.13686098807445748, 0.15701023208448817,
							0.07688793240384911, -0.009731195856500594,
							-0.21285091878479276, 0.04189451112016121
						],
						[
							-0.03320222646532893, -0.05171038936903845,
							-0.011757079536610898, -0.20427210014421412,
							-0.12882023293881226, 0.02230065064257755,
							0.082405623320386, 0.047801542844588395,
							-0.12095376625728485, 0.13059698879728754,
							0.01375197808010114, -0.049072309320237636,
							-0.1583252720336938, -0.14120023505576074,
							-0.04282327883974712, -0.15379337813766336,
							-0.15401473460073178, -0.13781913559105605,
							0.011369188693741115, -0.10596762357719447,
							-0.17581469813874434, -0.07332705104911441,
							-0.03197578883973945, 0.14941803908422296,
							0.05006944767069731, 0.0601174925827923,
							-0.18621375153889777, -0.16607122106031197,
							-0.05159049535585758, -0.04038612028413291,
							-0.022224874756428883, 0.04357200376465907
						],
						[
							-0.08556507914455401, -0.14985622427356993,
							-0.1986631863291759, -0.27896368905237356,
							-0.523272441620019, 0.08360136375796541,
							-0.05135645687276673, -0.2769887551267941,
							-0.15440465233641035, -0.03955036836705182,
							-0.27266777259242375, -0.2717903340741024,
							-0.1422988307399102, -0.23245594615070145,
							-0.0859328914886291, -0.11915532193334849,
							-0.21105714561873665, -0.2076874369539963,
							-0.15821297631621511, -0.2940176449351751,
							-0.030434651639202136, 0.034684278472589515,
							0.03292707057661266, -0.07604622427772374,
							-0.08300198414988194, -0.2732870440737902,
							-0.08419843455920994, -0.0010036649201440471,
							0.049192385941598055, -0.07676302476515005,
							0.08299464755284608, -0.20474597432110836
						],
						[
							0.24615181572612727, 0.13107640069355392,
							0.1917803837062006, -0.4131994522890823,
							-0.9173070240124259, 0.24604559579898877,
							0.14079905240252463, 0.21393090602900267,
							-0.030988331106072055, 0.3177666640633165,
							-0.5257836183705978, -0.15073651525036225,
							-0.08217395050649436, 0.09962314534226828,
							-0.17874103875337766, -0.03956650606731488,
							-0.14353353734770924, 0.1798045049757575,
							0.11150495883383241, -0.042333769212771793,
							0.16718221569951258, 0.2618841322860636,
							0.14785427594879083, -0.5072341588841816,
							0.3269752531014352, -0.1825221650937435,
							-0.25521109850297724, 0.13711695222311737,
							0.25055647191803426, -0.687250391090959,
							0.02724662839068368, -0.3020484936078982
						],
						[
							0.5499033097249802, 0.35148947408612885,
							0.6908564981610524, -0.7007230926189223,
							-0.2620402416333188, -0.1534123154811789,
							-0.05285256704457489, 0.18018715740501268,
							-0.3025509137502186, 0.6487417700826899,
							-0.7982586870958409, -0.5602597405835306,
							0.0903705725924762, 0.44206352270000876,
							-0.4671819794090614, -0.00015886356844647452,
							-0.21627722391067125, 0.3041937549028623,
							0.1881613096431651, -0.16759031257809748,
							-0.2761833983378694, 0.18874922674374014,
							-0.12347507269381866, -0.6836768903195132,
							0.48425822395723483, -0.8275997289908736,
							-0.651637653435926, 0.20960582914373815,
							0.16464576321344407, -1.2933597361170264,
							-0.35338482739293425, -0.561480330638331
						],
						[
							-0.20409751052363964, 0.00010660029545826003,
							-0.14970934242539555, 0.01583247596649795,
							0.062168793792561065, -0.08227467917240364,
							0.008408740639255922, -0.19045684793046677,
							-0.157289888083574, -0.09215423329567758,
							-0.11972493934727706, -0.30393688478956077,
							0.02431796081869334, -0.12595114594398388,
							-0.11366837280768893, 0.0415141749224701,
							-0.028322186299711272, -0.10438246478721888,
							-0.26672874438580546, 0.08049673914518023,
							-0.09005658696269232, -0.12001649920170922,
							-0.1872413778355306, -0.055434550698396264,
							0.12226855883827689, 0.023457286442868132,
							0.2122348400459752, 0.04679592397678722,
							0.049983406063500664, -0.1735210847307151,
							-0.11548331536144747, 0.0022838400598406564
						],
						[
							-0.0184426094347376, -0.09902018918295527,
							-0.128864077064018, -0.2230695629923,
							-0.18687328381547266, -0.0579526027389257,
							-0.16438425429252337, -0.11959611888524531,
							-0.20028611832311766, -0.0673823745310139,
							-0.21898138485632218, 0.008405028271652308,
							0.008226341073790396, 0.0019180525809496388,
							-0.2595534765243118, -0.20100943758093093,
							-0.1582011225244774, -0.05384355869951361,
							0.09517930561322868, -0.051020334509972926,
							-0.08267152793568452, 0.04959122127440581,
							-0.05652266223357819, -0.160562655891962,
							-0.06490635044254557, -0.28921761030956017,
							-0.253172239398507, -0.25276970041745567,
							-0.11719215931223045, -0.22929065521118935,
							0.01553108829688703, -0.110400037592412
						],
						[
							-0.09205091036046742, 0.0676951847127614,
							0.09313967540534188, -0.9368136924373648,
							-0.55689682822, 0.03439076653086666,
							-0.10569341148949386, 0.13333406871299522,
							-1.0323909036312933, 0.17488087522343485,
							-0.208521537660999, -0.02030310835988609,
							0.15724753607047973, 0.1744587409234307,
							-0.016620334217605007, -0.08180994302096473,
							-1.123870182791731, 0.18331632944122248,
							-0.013264611690638443, -0.27496404360935006,
							-0.0576575681857579, 0.29860553617281477,
							-0.1969395583412984, -0.020305720969988818,
							-0.3118275414189551, -0.068884320605448,
							0.036927015344039145, 0.2900357537603766,
							0.0954630979413757, 0.017767335090268836,
							-0.05915855721478496, -0.04323872947985109
						],
						[
							0.36419345606003883, 0.18039690033799782,
							0.07103531784614495, -0.10987491061075431,
							0.04683657106027077, -0.4625602944656808,
							-0.060876146666309666, -0.09889895325191188,
							-0.2961809562195779, 0.09465710683602625,
							-0.38650344239498063, -0.11187088017243373,
							-0.34137969545732383, 0.0913155753933385,
							-0.49479929032561737, -0.06462259542838225,
							-0.16021150321480612, 0.020624720349327053,
							-0.2764367095137785, 0.11635419093188404,
							-0.19497393049632175, -0.005352337604056236,
							-0.2610396782692512, -0.35155786844576936,
							0.32810880132830017, -0.5633485238354448,
							-0.24003571396331883, -0.21052409814106887,
							-0.0856632967426359, -0.3736134146020905,
							-0.4285343873715125, -0.2407021150665559
						],
						[
							0.10248640532755908, -0.12656521823782563,
							-0.05113619525738668, -0.03233467305260081,
							0.0944285291246061, -0.2237811116194172,
							0.0009639228423771716, -0.19158287880918962,
							0.13542853115578776, -0.11202233395312057,
							-0.30946563788491316, -0.09376834596858133,
							0.004037244838686342, -0.19979574518037774,
							-0.2521489418822718, -0.04907503865444635,
							-0.028070689666104598, -0.2725704655579961,
							0.1240789368438173, -0.07305931312438198,
							-0.05425335259174911, -0.09156819266853712,
							-0.027566527472403735, 0.03551786155826984,
							0.06162019543442829, -0.09301780964314973,
							-0.3726997949725033, 0.09643809422115908,
							-0.10074764320913378, -0.2795890005270702,
							0.010138997492450025, -0.22237974778187156
						],
						[
							0.533591254811775, 0.07643785449634845,
							0.2687423875468322, -0.24635170175257565,
							-0.19063399851210702, -0.22874185371696773,
							0.027707589263346783, 0.27517420795680697,
							-0.46261842359166, 0.46942728888032975,
							-0.6478594026594482, -0.37836740917191775,
							0.18780690012690424, 0.43254859474975454,
							-0.5240657462952497, -0.026280273253845705,
							-0.10292597084665164, 0.19856697713138555,
							-0.047886087496738866, -0.10954799403645174,
							-0.048940273056999155, 0.03766245753586377,
							-0.21297275588949058, -0.6261625923254518,
							0.4438304163888096, -0.5123939327565727,
							-0.4673177473833219, 0.29991938024330106,
							0.09529079795907473, -0.5873678802029104,
							-0.32991425431389865, -0.27377125430231375
						],
						[
							-0.0036801273687550257, -0.10229983104072725,
							0.06264937474115885, 0.040042428422606934,
							0.15830953349574664, -0.18133453561705873,
							0.07215318719164203, 0.04164523125293661,
							-0.07083325822906966, -0.14859146066780002,
							-0.28583311420794927, -0.12534447066786517,
							0.15436082670416418, 0.11312148952036141,
							0.05929605264874179, -0.18859087567491706,
							0.010675588760162698, -0.25375623647612366,
							0.15307429472128437, 0.12940654591190273,
							-0.15365927168942495, 0.10259157418940176,
							-0.18464790562688718, -0.11716741193911535,
							-0.10333539869666339, -0.19173092630870195,
							-0.24641221871726868, -0.02871669186824037,
							-0.08201323663923156, -0.1531971728417898,
							-0.09881344658960108, -0.08005259720068891
						],
						[
							0.21816172854992785, 0.16207984439472445,
							0.3377113568351938, -0.36661862934925005,
							-0.5939284137047977, -0.047492653274098885,
							-0.14755818019057346, 0.2870362232373799,
							0.13018734495222972, 0.13291245875030513,
							-0.5151324488590956, -0.40212708079651793,
							0.1409971426977536, 0.3695254718821517,
							-0.04392651895575862, 0.1759986839586193,
							-0.24450930185536696, 0.2295811902658551,
							-0.044586683717955794, 0.11695267363287655,
							-0.08342693179566876, 0.18236303220213052,
							0.15062967064370567, -0.4926489193138552,
							0.447846009626401, -0.3218961664983336,
							-0.2006861131225231, 0.02926843622091464,
							0.027309226737188833, -0.47089651465784793,
							-0.23545991878515976, -0.4210190948272995
						],
						[
							-0.03416995755967381, 0.1526207967862869,
							0.08598998245113738, -0.5494640097158635,
							-0.37810987041203836, -0.011533478421010976,
							0.12413333246249943, 0.5091862536493329,
							-0.7620089791895702, 0.22229223850817587,
							-0.33383098135776673, -0.2987465500387105,
							0.1541420903007727, 0.25346054639219145,
							0.13298767169239867, 0.023268641258185913,
							-0.8094762497646167, 0.2313369713899141,
							0.18276606532372952, -0.2650011979749017,
							-0.08516555952816231, 0.17666008858252502,
							-0.2436508434850006, -0.027460398137888652,
							-0.08727664870904057, -0.0960805337143641,
							0.05368312577360832, 0.4127968317968364,
							0.5204535254803843, -0.14527652355426282,
							0.11661981135962234, 0.2338661372218794
						],
						[
							-0.24352363169419688, -0.3085877003128025,
							-0.137589603265395, -0.22410814464187154,
							-0.5149256612932521, -0.11074684601853249,
							-0.17567423640315033, -0.060548124096546994,
							-0.20527972620912402, -0.2725731481021253,
							-0.1694958726117706, 0.0155143107615946,
							-0.03743446209435587, -0.06936755749045066,
							-0.14672122094412615, -0.068823683342666,
							-0.34344394629505043, -0.12965094052130313,
							0.09102573458759487, -0.3167601214338011,
							-0.08389394259630409, 0.012433577497792397,
							0.01387130215774953, -0.07119674421403424,
							-0.18913341935483163, 0.04968534457519817,
							-0.15947766403792515, 0.054994914553007083,
							-0.10242067540140476, -0.23299702204598793,
							-0.14638012137631645, -0.1316556705936482
						],
						[
							0.15523855280524065, 0.09888625503648492,
							0.03774715261229771, 0.44003539601917496,
							-2.1941091731362423, 0.16155027050653376,
							0.1092651747934521, 0.29700462580503656,
							0.5478338782608928, 0.1652458527656199,
							-0.3115207084266284, -0.2742124126580028,
							0.13447222812904316, 0.3196311922034711,
							-0.03307083245944541, 0.1028285832084022,
							0.4913552086844781, 0.07999640207579768,
							0.4897375027723276, -0.5791191995607161,
							0.44395156460174, 0.08543636546738484,
							0.44212841061154107, -0.671468744870135,
							0.17503913969327736, -0.4465328870478454,
							-0.3672843271507311, 0.4433356754583688,
							0.4139223159581455, -0.6747559933280901,
